digraph Tree {
node [shape=box] ;
0 [label="X[2] <= 0.751\ngini = 0.167\nsamples = 39741\nvalue = [36087, 3654]"] ;
1 [label="X[3] <= 0.635\ngini = 0.094\nsamples = 35775\nvalue = [34006, 1769]"] ;
0 -> 1 [labeldistance=2.5, labelangle=45, headlabel="True"] ;
2 [label="X[1] <= 0.367\ngini = 0.048\nsamples = 29684\nvalue = [28961, 723]"] ;
1 -> 2 ;
3 [label="X[1] <= 0.297\ngini = 0.025\nsamples = 25068\nvalue = [24757, 311]"] ;
2 -> 3 ;
4 [label="X[0] <= 0.711\ngini = 0.014\nsamples = 20574\nvalue = [20433, 141]"] ;
3 -> 4 ;
5 [label="X[3] <= 0.459\ngini = 0.008\nsamples = 18288\nvalue = [18210, 78]"] ;
4 -> 5 ;
6 [label="X[18] <= 0.5\ngini = 0.005\nsamples = 14196\nvalue = [14162, 34]"] ;
5 -> 6 ;
7 [label="X[2] <= 0.34\ngini = 0.002\nsamples = 11091\nvalue = [11078, 13]"] ;
6 -> 7 ;
8 [label="X[3] <= 0.221\ngini = 0.018\nsamples = 559\nvalue = [554, 5]"] ;
7 -> 8 ;
9 [label="gini = 0.0\nsamples = 377\nvalue = [377, 0]"] ;
8 -> 9 ;
10 [label="X[15] <= 0.5\ngini = 0.053\nsamples = 182\nvalue = [177, 5]"] ;
8 -> 10 ;
11 [label="X[3] <= 0.224\ngini = 0.025\nsamples = 160\nvalue = [158, 2]"] ;
10 -> 11 ;
12 [label="gini = 0.32\nsamples = 10\nvalue = [8, 2]"] ;
11 -> 12 ;
13 [label="gini = 0.0\nsamples = 150\nvalue = [150, 0]"] ;
11 -> 13 ;
14 [label="X[0] <= 0.456\ngini = 0.236\nsamples = 22\nvalue = [19, 3]"] ;
10 -> 14 ;
15 [label="gini = 0.0\nsamples = 12\nvalue = [12, 0]"] ;
14 -> 15 ;
16 [label="gini = 0.42\nsamples = 10\nvalue = [7, 3]"] ;
14 -> 16 ;
17 [label="X[0] <= 0.605\ngini = 0.002\nsamples = 10532\nvalue = [10524, 8]"] ;
7 -> 17 ;
18 [label="X[14] <= 0.5\ngini = 0.001\nsamples = 9036\nvalue = [9033, 3]"] ;
17 -> 18 ;
19 [label="X[2] <= 0.384\ngini = 0.0\nsamples = 8873\nvalue = [8871, 2]"] ;
18 -> 19 ;
20 [label="X[2] <= 0.383\ngini = 0.005\nsamples = 772\nvalue = [770, 2]"] ;
19 -> 20 ;
21 [label="X[1] <= 0.282\ngini = 0.003\nsamples = 762\nvalue = [761, 1]"] ;
20 -> 21 ;
22 [label="gini = 0.0\nsamples = 738\nvalue = [738, 0]"] ;
21 -> 22 ;
23 [label="X[0] <= 0.456\ngini = 0.08\nsamples = 24\nvalue = [23, 1]"] ;
21 -> 23 ;
24 [label="gini = 0.18\nsamples = 10\nvalue = [9, 1]"] ;
23 -> 24 ;
25 [label="gini = 0.0\nsamples = 14\nvalue = [14, 0]"] ;
23 -> 25 ;
26 [label="gini = 0.18\nsamples = 10\nvalue = [9, 1]"] ;
20 -> 26 ;
27 [label="gini = 0.0\nsamples = 8101\nvalue = [8101, 0]"] ;
19 -> 27 ;
28 [label="X[3] <= 0.161\ngini = 0.012\nsamples = 163\nvalue = [162, 1]"] ;
18 -> 28 ;
29 [label="gini = 0.18\nsamples = 10\nvalue = [9, 1]"] ;
28 -> 29 ;
30 [label="gini = 0.0\nsamples = 153\nvalue = [153, 0]"] ;
28 -> 30 ;
31 [label="X[0] <= 0.606\ngini = 0.007\nsamples = 1496\nvalue = [1491, 5]"] ;
17 -> 31 ;
32 [label="gini = 0.117\nsamples = 16\nvalue = [15, 1]"] ;
31 -> 32 ;
33 [label="X[3] <= 0.133\ngini = 0.005\nsamples = 1480\nvalue = [1476, 4]"] ;
31 -> 33 ;
34 [label="X[1] <= 0.232\ngini = 0.056\nsamples = 70\nvalue = [68, 2]"] ;
33 -> 34 ;
35 [label="gini = 0.0\nsamples = 53\nvalue = [53, 0]"] ;
34 -> 35 ;
36 [label="gini = 0.208\nsamples = 17\nvalue = [15, 2]"] ;
34 -> 36 ;
37 [label="X[0] <= 0.615\ngini = 0.003\nsamples = 1410\nvalue = [1408, 2]"] ;
33 -> 37 ;
38 [label="X[0] <= 0.614\ngini = 0.023\nsamples = 174\nvalue = [172, 2]"] ;
37 -> 38 ;
39 [label="X[2] <= 0.413\ngini = 0.012\nsamples = 164\nvalue = [163, 1]"] ;
38 -> 39 ;
40 [label="gini = 0.18\nsamples = 10\nvalue = [9, 1]"] ;
39 -> 40 ;
41 [label="gini = 0.0\nsamples = 154\nvalue = [154, 0]"] ;
39 -> 41 ;
42 [label="gini = 0.18\nsamples = 10\nvalue = [9, 1]"] ;
38 -> 42 ;
43 [label="gini = 0.0\nsamples = 1236\nvalue = [1236, 0]"] ;
37 -> 43 ;
44 [label="X[8] <= 0.5\ngini = 0.013\nsamples = 3105\nvalue = [3084, 21]"] ;
6 -> 44 ;
45 [label="X[0] <= 0.638\ngini = 0.01\nsamples = 3021\nvalue = [3006, 15]"] ;
44 -> 45 ;
46 [label="X[1] <= 0.239\ngini = 0.005\nsamples = 2776\nvalue = [2769, 7]"] ;
45 -> 46 ;
47 [label="X[0] <= 0.543\ngini = 0.001\nsamples = 2093\nvalue = [2092, 1]"] ;
46 -> 47 ;
48 [label="gini = 0.0\nsamples = 1679\nvalue = [1679, 0]"] ;
47 -> 48 ;
49 [label="X[0] <= 0.545\ngini = 0.005\nsamples = 414\nvalue = [413, 1]"] ;
47 -> 49 ;
50 [label="gini = 0.18\nsamples = 10\nvalue = [9, 1]"] ;
49 -> 50 ;
51 [label="gini = 0.0\nsamples = 404\nvalue = [404, 0]"] ;
49 -> 51 ;
52 [label="X[1] <= 0.241\ngini = 0.017\nsamples = 683\nvalue = [677, 6]"] ;
46 -> 52 ;
53 [label="X[2] <= 0.432\ngini = 0.12\nsamples = 47\nvalue = [44, 3]"] ;
52 -> 53 ;
54 [label="gini = 0.0\nsamples = 17\nvalue = [17, 0]"] ;
53 -> 54 ;
55 [label="X[2] <= 0.546\ngini = 0.18\nsamples = 30\nvalue = [27, 3]"] ;
53 -> 55 ;
56 [label="gini = 0.278\nsamples = 18\nvalue = [15, 3]"] ;
55 -> 56 ;
57 [label="gini = 0.0\nsamples = 12\nvalue = [12, 0]"] ;
55 -> 57 ;
58 [label="X[6] <= 0.015\ngini = 0.009\nsamples = 636\nvalue = [633, 3]"] ;
52 -> 58 ;
59 [label="X[0] <= 0.389\ngini = 0.004\nsamples = 542\nvalue = [541, 1]"] ;
58 -> 59 ;
60 [label="X[3] <= 0.357\ngini = 0.053\nsamples = 37\nvalue = [36, 1]"] ;
59 -> 60 ;
61 [label="gini = 0.0\nsamples = 27\nvalue = [27, 0]"] ;
60 -> 61 ;
62 [label="gini = 0.18\nsamples = 10\nvalue = [9, 1]"] ;
60 -> 62 ;
63 [label="gini = 0.0\nsamples = 505\nvalue = [505, 0]"] ;
59 -> 63 ;
64 [label="X[5] <= 0.979\ngini = 0.042\nsamples = 94\nvalue = [92, 2]"] ;
58 -> 64 ;
65 [label="gini = 0.0\nsamples = 76\nvalue = [76, 0]"] ;
64 -> 65 ;
66 [label="gini = 0.198\nsamples = 18\nvalue = [16, 2]"] ;
64 -> 66 ;
67 [label="X[1] <= 0.271\ngini = 0.063\nsamples = 245\nvalue = [237, 8]"] ;
45 -> 67 ;
68 [label="X[0] <= 0.642\ngini = 0.02\nsamples = 200\nvalue = [198, 2]"] ;
67 -> 68 ;
69 [label="gini = 0.245\nsamples = 14\nvalue = [12, 2]"] ;
68 -> 69 ;
70 [label="gini = 0.0\nsamples = 186\nvalue = [186, 0]"] ;
68 -> 70 ;
71 [label="X[6] <= 0.012\ngini = 0.231\nsamples = 45\nvalue = [39, 6]"] ;
67 -> 71 ;
72 [label="gini = 0.0\nsamples = 35\nvalue = [35, 0]"] ;
71 -> 72 ;
73 [label="gini = 0.48\nsamples = 10\nvalue = [4, 6]"] ;
71 -> 73 ;
74 [label="X[3] <= 0.166\ngini = 0.133\nsamples = 84\nvalue = [78, 6]"] ;
44 -> 74 ;
75 [label="gini = 0.49\nsamples = 14\nvalue = [8, 6]"] ;
74 -> 75 ;
76 [label="gini = 0.0\nsamples = 70\nvalue = [70, 0]"] ;
74 -> 76 ;
77 [label="X[5] <= 0.997\ngini = 0.021\nsamples = 4092\nvalue = [4048, 44]"] ;
5 -> 77 ;
78 [label="X[0] <= 0.612\ngini = 0.012\nsamples = 3090\nvalue = [3071, 19]"] ;
77 -> 78 ;
79 [label="X[6] <= 0.535\ngini = 0.008\nsamples = 2342\nvalue = [2333, 9]"] ;
78 -> 79 ;
80 [label="X[6] <= 0.048\ngini = 0.003\nsamples = 1767\nvalue = [1764, 3]"] ;
79 -> 80 ;
81 [label="gini = 0.0\nsamples = 1078\nvalue = [1078, 0]"] ;
80 -> 81 ;
82 [label="X[6] <= 0.055\ngini = 0.009\nsamples = 689\nvalue = [686, 3]"] ;
80 -> 82 ;
83 [label="gini = 0.18\nsamples = 10\nvalue = [9, 1]"] ;
82 -> 83 ;
84 [label="X[5] <= 0.923\ngini = 0.006\nsamples = 679\nvalue = [677, 2]"] ;
82 -> 84 ;
85 [label="gini = 0.0\nsamples = 607\nvalue = [607, 0]"] ;
84 -> 85 ;
86 [label="X[0] <= 0.562\ngini = 0.054\nsamples = 72\nvalue = [70, 2]"] ;
84 -> 86 ;
87 [label="gini = 0.0\nsamples = 60\nvalue = [60, 0]"] ;
86 -> 87 ;
88 [label="gini = 0.278\nsamples = 12\nvalue = [10, 2]"] ;
86 -> 88 ;
89 [label="X[5] <= 0.393\ngini = 0.021\nsamples = 575\nvalue = [569, 6]"] ;
79 -> 89 ;
90 [label="X[3] <= 0.467\ngini = 0.004\nsamples = 516\nvalue = [515, 1]"] ;
89 -> 90 ;
91 [label="X[3] <= 0.465\ngini = 0.054\nsamples = 36\nvalue = [35, 1]"] ;
90 -> 91 ;
92 [label="gini = 0.0\nsamples = 26\nvalue = [26, 0]"] ;
91 -> 92 ;
93 [label="gini = 0.18\nsamples = 10\nvalue = [9, 1]"] ;
91 -> 93 ;
94 [label="gini = 0.0\nsamples = 480\nvalue = [480, 0]"] ;
90 -> 94 ;
95 [label="X[6] <= 0.574\ngini = 0.155\nsamples = 59\nvalue = [54, 5]"] ;
89 -> 95 ;
96 [label="X[2] <= 0.563\ngini = 0.042\nsamples = 47\nvalue = [46, 1]"] ;
95 -> 96 ;
97 [label="gini = 0.0\nsamples = 37\nvalue = [37, 0]"] ;
96 -> 97 ;
98 [label="gini = 0.18\nsamples = 10\nvalue = [9, 1]"] ;
96 -> 98 ;
99 [label="gini = 0.444\nsamples = 12\nvalue = [8, 4]"] ;
95 -> 99 ;
100 [label="X[3] <= 0.462\ngini = 0.026\nsamples = 748\nvalue = [738, 10]"] ;
78 -> 100 ;
101 [label="gini = 0.231\nsamples = 15\nvalue = [13, 2]"] ;
100 -> 101 ;
102 [label="X[2] <= 0.732\ngini = 0.022\nsamples = 733\nvalue = [725, 8]"] ;
100 -> 102 ;
103 [label="X[5] <= 0.923\ngini = 0.019\nsamples = 723\nvalue = [716, 7]"] ;
102 -> 103 ;
104 [label="X[0] <= 0.615\ngini = 0.004\nsamples = 487\nvalue = [486, 1]"] ;
103 -> 104 ;
105 [label="X[1] <= 0.237\ngini = 0.074\nsamples = 26\nvalue = [25, 1]"] ;
104 -> 105 ;
106 [label="gini = 0.0\nsamples = 16\nvalue = [16, 0]"] ;
105 -> 106 ;
107 [label="gini = 0.18\nsamples = 10\nvalue = [9, 1]"] ;
105 -> 107 ;
108 [label="gini = 0.0\nsamples = 461\nvalue = [461, 0]"] ;
104 -> 108 ;
109 [label="X[6] <= 0.058\ngini = 0.05\nsamples = 236\nvalue = [230, 6]"] ;
103 -> 109 ;
110 [label="X[0] <= 0.615\ngini = 0.027\nsamples = 221\nvalue = [218, 3]"] ;
109 -> 110 ;
111 [label="gini = 0.18\nsamples = 10\nvalue = [9, 1]"] ;
110 -> 111 ;
112 [label="X[3] <= 0.615\ngini = 0.019\nsamples = 211\nvalue = [209, 2]"] ;
110 -> 112 ;
113 [label="X[9] <= 0.5\ngini = 0.01\nsamples = 197\nvalue = [196, 1]"] ;
112 -> 113 ;
114 [label="gini = 0.0\nsamples = 182\nvalue = [182, 0]"] ;
113 -> 114 ;
115 [label="gini = 0.124\nsamples = 15\nvalue = [14, 1]"] ;
113 -> 115 ;
116 [label="gini = 0.133\nsamples = 14\nvalue = [13, 1]"] ;
112 -> 116 ;
117 [label="gini = 0.32\nsamples = 15\nvalue = [12, 3]"] ;
109 -> 117 ;
118 [label="gini = 0.18\nsamples = 10\nvalue = [9, 1]"] ;
102 -> 118 ;
119 [label="X[2] <= 0.653\ngini = 0.049\nsamples = 1002\nvalue = [977, 25]"] ;
77 -> 119 ;
120 [label="X[1] <= 0.239\ngini = 0.038\nsamples = 934\nvalue = [916, 18]"] ;
119 -> 120 ;
121 [label="X[2] <= 0.388\ngini = 0.008\nsamples = 531\nvalue = [529, 2]"] ;
120 -> 121 ;
122 [label="gini = 0.111\nsamples = 17\nvalue = [16, 1]"] ;
121 -> 122 ;
123 [label="X[3] <= 0.465\ngini = 0.004\nsamples = 514\nvalue = [513, 1]"] ;
121 -> 123 ;
124 [label="X[2] <= 0.521\ngini = 0.059\nsamples = 33\nvalue = [32, 1]"] ;
123 -> 124 ;
125 [label="gini = 0.0\nsamples = 23\nvalue = [23, 0]"] ;
124 -> 125 ;
126 [label="gini = 0.18\nsamples = 10\nvalue = [9, 1]"] ;
124 -> 126 ;
127 [label="gini = 0.0\nsamples = 481\nvalue = [481, 0]"] ;
123 -> 127 ;
128 [label="X[1] <= 0.241\ngini = 0.076\nsamples = 403\nvalue = [387, 16]"] ;
120 -> 128 ;
129 [label="X[0] <= 0.595\ngini = 0.213\nsamples = 33\nvalue = [29, 4]"] ;
128 -> 129 ;
130 [label="X[0] <= 0.483\ngini = 0.083\nsamples = 23\nvalue = [22, 1]"] ;
129 -> 130 ;
131 [label="gini = 0.18\nsamples = 10\nvalue = [9, 1]"] ;
130 -> 131 ;
132 [label="gini = 0.0\nsamples = 13\nvalue = [13, 0]"] ;
130 -> 132 ;
133 [label="gini = 0.42\nsamples = 10\nvalue = [7, 3]"] ;
129 -> 133 ;
134 [label="X[0] <= 0.524\ngini = 0.063\nsamples = 370\nvalue = [358, 12]"] ;
128 -> 134 ;
135 [label="X[0] <= 0.517\ngini = 0.119\nsamples = 142\nvalue = [133, 9]"] ;
134 -> 135 ;
136 [label="X[0] <= 0.484\ngini = 0.088\nsamples = 130\nvalue = [124, 6]"] ;
135 -> 136 ;
137 [label="X[0] <= 0.472\ngini = 0.128\nsamples = 87\nvalue = [81, 6]"] ;
136 -> 137 ;
138 [label="X[2] <= 0.516\ngini = 0.081\nsamples = 71\nvalue = [68, 3]"] ;
137 -> 138 ;
139 [label="gini = 0.0\nsamples = 33\nvalue = [33, 0]"] ;
138 -> 139 ;
140 [label="X[2] <= 0.552\ngini = 0.145\nsamples = 38\nvalue = [35, 3]"] ;
138 -> 140 ;
141 [label="gini = 0.305\nsamples = 16\nvalue = [13, 3]"] ;
140 -> 141 ;
142 [label="gini = 0.0\nsamples = 22\nvalue = [22, 0]"] ;
140 -> 142 ;
143 [label="gini = 0.305\nsamples = 16\nvalue = [13, 3]"] ;
137 -> 143 ;
144 [label="gini = 0.0\nsamples = 43\nvalue = [43, 0]"] ;
136 -> 144 ;
145 [label="gini = 0.375\nsamples = 12\nvalue = [9, 3]"] ;
135 -> 145 ;
146 [label="X[3] <= 0.573\ngini = 0.026\nsamples = 228\nvalue = [225, 3]"] ;
134 -> 146 ;
147 [label="gini = 0.0\nsamples = 185\nvalue = [185, 0]"] ;
146 -> 147 ;
148 [label="X[2] <= 0.582\ngini = 0.13\nsamples = 43\nvalue = [40, 3]"] ;
146 -> 148 ;
149 [label="gini = 0.0\nsamples = 25\nvalue = [25, 0]"] ;
148 -> 149 ;
150 [label="gini = 0.278\nsamples = 18\nvalue = [15, 3]"] ;
148 -> 150 ;
151 [label="X[1] <= 0.241\ngini = 0.185\nsamples = 68\nvalue = [61, 7]"] ;
119 -> 151 ;
152 [label="X[0] <= 0.487\ngini = 0.283\nsamples = 41\nvalue = [34, 7]"] ;
151 -> 152 ;
153 [label="gini = 0.0\nsamples = 11\nvalue = [11, 0]"] ;
152 -> 153 ;
154 [label="X[3] <= 0.584\ngini = 0.358\nsamples = 30\nvalue = [23, 7]"] ;
152 -> 154 ;
155 [label="gini = 0.208\nsamples = 17\nvalue = [15, 2]"] ;
154 -> 155 ;
156 [label="gini = 0.473\nsamples = 13\nvalue = [8, 5]"] ;
154 -> 156 ;
157 [label="gini = 0.0\nsamples = 27\nvalue = [27, 0]"] ;
151 -> 157 ;
158 [label="X[0] <= 0.712\ngini = 0.054\nsamples = 2286\nvalue = [2223, 63]"] ;
4 -> 158 ;
159 [label="gini = 0.415\nsamples = 17\nvalue = [12, 5]"] ;
158 -> 159 ;
160 [label="X[1] <= 0.23\ngini = 0.05\nsamples = 2269\nvalue = [2211, 58]"] ;
158 -> 160 ;
161 [label="X[0] <= 0.945\ngini = 0.018\nsamples = 1088\nvalue = [1078, 10]"] ;
160 -> 161 ;
162 [label="X[2] <= 0.379\ngini = 0.013\nsamples = 1039\nvalue = [1032, 7]"] ;
161 -> 162 ;
163 [label="X[1] <= 0.203\ngini = 0.121\nsamples = 31\nvalue = [29, 2]"] ;
162 -> 163 ;
164 [label="gini = 0.0\nsamples = 21\nvalue = [21, 0]"] ;
163 -> 164 ;
165 [label="gini = 0.32\nsamples = 10\nvalue = [8, 2]"] ;
163 -> 165 ;
166 [label="X[2] <= 0.746\ngini = 0.01\nsamples = 1008\nvalue = [1003, 5]"] ;
162 -> 166 ;
167 [label="X[5] <= 0.997\ngini = 0.008\nsamples = 998\nvalue = [994, 4]"] ;
166 -> 167 ;
168 [label="gini = 0.0\nsamples = 802\nvalue = [802, 0]"] ;
167 -> 168 ;
169 [label="X[3] <= 0.304\ngini = 0.04\nsamples = 196\nvalue = [192, 4]"] ;
167 -> 169 ;
170 [label="X[1] <= 0.17\ngini = 0.124\nsamples = 30\nvalue = [28, 2]"] ;
169 -> 170 ;
171 [label="gini = 0.298\nsamples = 11\nvalue = [9, 2]"] ;
170 -> 171 ;
172 [label="gini = 0.0\nsamples = 19\nvalue = [19, 0]"] ;
170 -> 172 ;
173 [label="X[0] <= 0.86\ngini = 0.024\nsamples = 166\nvalue = [164, 2]"] ;
169 -> 173 ;
174 [label="gini = 0.0\nsamples = 118\nvalue = [118, 0]"] ;
173 -> 174 ;
175 [label="X[2] <= 0.564\ngini = 0.08\nsamples = 48\nvalue = [46, 2]"] ;
173 -> 175 ;
176 [label="X[0] <= 0.903\ngini = 0.147\nsamples = 25\nvalue = [23, 2]"] ;
175 -> 176 ;
177 [label="gini = 0.26\nsamples = 13\nvalue = [11, 2]"] ;
176 -> 177 ;
178 [label="gini = 0.0\nsamples = 12\nvalue = [12, 0]"] ;
176 -> 178 ;
179 [label="gini = 0.0\nsamples = 23\nvalue = [23, 0]"] ;
175 -> 179 ;
180 [label="gini = 0.18\nsamples = 10\nvalue = [9, 1]"] ;
166 -> 180 ;
181 [label="X[2] <= 0.665\ngini = 0.115\nsamples = 49\nvalue = [46, 3]"] ;
161 -> 181 ;
182 [label="X[3] <= 0.412\ngini = 0.054\nsamples = 36\nvalue = [35, 1]"] ;
181 -> 182 ;
183 [label="gini = 0.0\nsamples = 26\nvalue = [26, 0]"] ;
182 -> 183 ;
184 [label="gini = 0.18\nsamples = 10\nvalue = [9, 1]"] ;
182 -> 184 ;
185 [label="gini = 0.26\nsamples = 13\nvalue = [11, 2]"] ;
181 -> 185 ;
186 [label="X[3] <= 0.404\ngini = 0.078\nsamples = 1181\nvalue = [1133, 48]"] ;
160 -> 186 ;
187 [label="X[5] <= 0.991\ngini = 0.03\nsamples = 460\nvalue = [453, 7]"] ;
186 -> 187 ;
188 [label="X[0] <= 0.721\ngini = 0.006\nsamples = 310\nvalue = [309, 1]"] ;
187 -> 188 ;
189 [label="gini = 0.124\nsamples = 15\nvalue = [14, 1]"] ;
188 -> 189 ;
190 [label="gini = 0.0\nsamples = 295\nvalue = [295, 0]"] ;
188 -> 190 ;
191 [label="X[6] <= 0.003\ngini = 0.077\nsamples = 150\nvalue = [144, 6]"] ;
187 -> 191 ;
192 [label="X[2] <= 0.462\ngini = 0.046\nsamples = 128\nvalue = [125, 3]"] ;
191 -> 192 ;
193 [label="X[1] <= 0.254\ngini = 0.18\nsamples = 30\nvalue = [27, 3]"] ;
192 -> 193 ;
194 [label="gini = 0.0\nsamples = 11\nvalue = [11, 0]"] ;
193 -> 194 ;
195 [label="gini = 0.266\nsamples = 19\nvalue = [16, 3]"] ;
193 -> 195 ;
196 [label="gini = 0.0\nsamples = 98\nvalue = [98, 0]"] ;
192 -> 196 ;
197 [label="X[18] <= 0.5\ngini = 0.236\nsamples = 22\nvalue = [19, 3]"] ;
191 -> 197 ;
198 [label="gini = 0.0\nsamples = 12\nvalue = [12, 0]"] ;
197 -> 198 ;
199 [label="gini = 0.42\nsamples = 10\nvalue = [7, 3]"] ;
197 -> 199 ;
200 [label="X[3] <= 0.408\ngini = 0.107\nsamples = 721\nvalue = [680, 41]"] ;
186 -> 200 ;
201 [label="gini = 0.48\nsamples = 10\nvalue = [6, 4]"] ;
200 -> 201 ;
202 [label="X[2] <= 0.408\ngini = 0.099\nsamples = 711\nvalue = [674, 37]"] ;
200 -> 202 ;
203 [label="gini = 0.42\nsamples = 10\nvalue = [7, 3]"] ;
202 -> 203 ;
204 [label="X[5] <= 0.432\ngini = 0.092\nsamples = 701\nvalue = [667, 34]"] ;
202 -> 204 ;
205 [label="X[0] <= 0.961\ngini = 0.025\nsamples = 237\nvalue = [234, 3]"] ;
204 -> 205 ;
206 [label="X[2] <= 0.448\ngini = 0.009\nsamples = 219\nvalue = [218, 1]"] ;
205 -> 206 ;
207 [label="gini = 0.165\nsamples = 11\nvalue = [10, 1]"] ;
206 -> 207 ;
208 [label="gini = 0.0\nsamples = 208\nvalue = [208, 0]"] ;
206 -> 208 ;
209 [label="gini = 0.198\nsamples = 18\nvalue = [16, 2]"] ;
205 -> 209 ;
210 [label="X[5] <= 0.466\ngini = 0.125\nsamples = 464\nvalue = [433, 31]"] ;
204 -> 210 ;
211 [label="X[3] <= 0.48\ngini = 0.32\nsamples = 20\nvalue = [16, 4]"] ;
210 -> 211 ;
212 [label="gini = 0.18\nsamples = 10\nvalue = [9, 1]"] ;
211 -> 212 ;
213 [label="gini = 0.42\nsamples = 10\nvalue = [7, 3]"] ;
211 -> 213 ;
214 [label="X[4] <= 0.003\ngini = 0.114\nsamples = 444\nvalue = [417, 27]"] ;
210 -> 214 ;
215 [label="X[3] <= 0.532\ngini = 0.134\nsamples = 359\nvalue = [333, 26]"] ;
214 -> 215 ;
216 [label="X[3] <= 0.466\ngini = 0.172\nsamples = 210\nvalue = [190, 20]"] ;
215 -> 216 ;
217 [label="X[1] <= 0.271\ngini = 0.078\nsamples = 99\nvalue = [95, 4]"] ;
216 -> 217 ;
218 [label="gini = 0.0\nsamples = 50\nvalue = [50, 0]"] ;
217 -> 218 ;
219 [label="X[3] <= 0.446\ngini = 0.15\nsamples = 49\nvalue = [45, 4]"] ;
217 -> 219 ;
220 [label="X[0] <= 0.771\ngini = 0.238\nsamples = 29\nvalue = [25, 4]"] ;
219 -> 220 ;
221 [label="gini = 0.0\nsamples = 12\nvalue = [12, 0]"] ;
220 -> 221 ;
222 [label="gini = 0.36\nsamples = 17\nvalue = [13, 4]"] ;
220 -> 222 ;
223 [label="gini = 0.0\nsamples = 20\nvalue = [20, 0]"] ;
219 -> 223 ;
224 [label="X[2] <= 0.549\ngini = 0.247\nsamples = 111\nvalue = [95, 16]"] ;
216 -> 224 ;
225 [label="X[2] <= 0.499\ngini = 0.081\nsamples = 47\nvalue = [45, 2]"] ;
224 -> 225 ;
226 [label="gini = 0.208\nsamples = 17\nvalue = [15, 2]"] ;
225 -> 226 ;
227 [label="gini = 0.0\nsamples = 30\nvalue = [30, 0]"] ;
225 -> 227 ;
228 [label="X[0] <= 0.799\ngini = 0.342\nsamples = 64\nvalue = [50, 14]"] ;
224 -> 228 ;
229 [label="X[6] <= 0.001\ngini = 0.198\nsamples = 27\nvalue = [24, 3]"] ;
228 -> 229 ;
230 [label="gini = 0.0\nsamples = 13\nvalue = [13, 0]"] ;
229 -> 230 ;
231 [label="gini = 0.337\nsamples = 14\nvalue = [11, 3]"] ;
229 -> 231 ;
232 [label="X[0] <= 0.89\ngini = 0.418\nsamples = 37\nvalue = [26, 11]"] ;
228 -> 232 ;
233 [label="X[1] <= 0.282\ngini = 0.49\nsamples = 21\nvalue = [12, 9]"] ;
232 -> 233 ;
234 [label="gini = 0.496\nsamples = 11\nvalue = [5, 6]"] ;
233 -> 234 ;
235 [label="gini = 0.42\nsamples = 10\nvalue = [7, 3]"] ;
233 -> 235 ;
236 [label="gini = 0.219\nsamples = 16\nvalue = [14, 2]"] ;
232 -> 236 ;
237 [label="X[2] <= 0.492\ngini = 0.077\nsamples = 149\nvalue = [143, 6]"] ;
215 -> 237 ;
238 [label="gini = 0.32\nsamples = 10\nvalue = [8, 2]"] ;
237 -> 238 ;
239 [label="X[1] <= 0.237\ngini = 0.056\nsamples = 139\nvalue = [135, 4]"] ;
237 -> 239 ;
240 [label="gini = 0.219\nsamples = 16\nvalue = [14, 2]"] ;
239 -> 240 ;
241 [label="X[0] <= 0.725\ngini = 0.032\nsamples = 123\nvalue = [121, 2]"] ;
239 -> 241 ;
242 [label="gini = 0.165\nsamples = 11\nvalue = [10, 1]"] ;
241 -> 242 ;
243 [label="X[3] <= 0.538\ngini = 0.018\nsamples = 112\nvalue = [111, 1]"] ;
241 -> 243 ;
244 [label="gini = 0.165\nsamples = 11\nvalue = [10, 1]"] ;
243 -> 244 ;
245 [label="gini = 0.0\nsamples = 101\nvalue = [101, 0]"] ;
243 -> 245 ;
246 [label="X[2] <= 0.514\ngini = 0.023\nsamples = 85\nvalue = [84, 1]"] ;
214 -> 246 ;
247 [label="gini = 0.18\nsamples = 10\nvalue = [9, 1]"] ;
246 -> 247 ;
248 [label="gini = 0.0\nsamples = 75\nvalue = [75, 0]"] ;
246 -> 248 ;
249 [label="X[3] <= 0.471\ngini = 0.073\nsamples = 4494\nvalue = [4324, 170]"] ;
3 -> 249 ;
250 [label="X[0] <= 0.633\ngini = 0.034\nsamples = 2626\nvalue = [2581, 45]"] ;
249 -> 250 ;
251 [label="X[3] <= 0.457\ngini = 0.012\nsamples = 1511\nvalue = [1502, 9]"] ;
250 -> 251 ;
252 [label="X[6] <= 0.974\ngini = 0.008\nsamples = 1410\nvalue = [1404, 6]"] ;
251 -> 252 ;
253 [label="X[3] <= 0.422\ngini = 0.007\nsamples = 1384\nvalue = [1379, 5]"] ;
252 -> 253 ;
254 [label="X[4] <= 0.015\ngini = 0.003\nsamples = 1148\nvalue = [1146, 2]"] ;
253 -> 254 ;
255 [label="gini = 0.0\nsamples = 1030\nvalue = [1030, 0]"] ;
254 -> 255 ;
256 [label="X[1] <= 0.356\ngini = 0.033\nsamples = 118\nvalue = [116, 2]"] ;
254 -> 256 ;
257 [label="X[18] <= 0.5\ngini = 0.018\nsamples = 108\nvalue = [107, 1]"] ;
256 -> 257 ;
258 [label="gini = 0.0\nsamples = 95\nvalue = [95, 0]"] ;
257 -> 258 ;
259 [label="gini = 0.142\nsamples = 13\nvalue = [12, 1]"] ;
257 -> 259 ;
260 [label="gini = 0.18\nsamples = 10\nvalue = [9, 1]"] ;
256 -> 260 ;
261 [label="X[3] <= 0.423\ngini = 0.025\nsamples = 236\nvalue = [233, 3]"] ;
253 -> 261 ;
262 [label="gini = 0.18\nsamples = 10\nvalue = [9, 1]"] ;
261 -> 262 ;
263 [label="X[5] <= 0.991\ngini = 0.018\nsamples = 226\nvalue = [224, 2]"] ;
261 -> 263 ;
264 [label="gini = 0.0\nsamples = 138\nvalue = [138, 0]"] ;
263 -> 264 ;
265 [label="X[3] <= 0.438\ngini = 0.044\nsamples = 88\nvalue = [86, 2]"] ;
263 -> 265 ;
266 [label="X[2] <= 0.511\ngini = 0.111\nsamples = 34\nvalue = [32, 2]"] ;
265 -> 266 ;
267 [label="gini = 0.0\nsamples = 20\nvalue = [20, 0]"] ;
266 -> 267 ;
268 [label="gini = 0.245\nsamples = 14\nvalue = [12, 2]"] ;
266 -> 268 ;
269 [label="gini = 0.0\nsamples = 54\nvalue = [54, 0]"] ;
265 -> 269 ;
270 [label="X[5] <= 0.014\ngini = 0.074\nsamples = 26\nvalue = [25, 1]"] ;
252 -> 270 ;
271 [label="gini = 0.0\nsamples = 16\nvalue = [16, 0]"] ;
270 -> 271 ;
272 [label="gini = 0.18\nsamples = 10\nvalue = [9, 1]"] ;
270 -> 272 ;
273 [label="X[0] <= 0.472\ngini = 0.058\nsamples = 101\nvalue = [98, 3]"] ;
251 -> 273 ;
274 [label="gini = 0.219\nsamples = 16\nvalue = [14, 2]"] ;
273 -> 274 ;
275 [label="X[3] <= 0.458\ngini = 0.023\nsamples = 85\nvalue = [84, 1]"] ;
273 -> 275 ;
276 [label="gini = 0.18\nsamples = 10\nvalue = [9, 1]"] ;
275 -> 276 ;
277 [label="gini = 0.0\nsamples = 75\nvalue = [75, 0]"] ;
275 -> 277 ;
278 [label="X[5] <= 0.876\ngini = 0.062\nsamples = 1115\nvalue = [1079, 36]"] ;
250 -> 278 ;
279 [label="X[0] <= 0.88\ngini = 0.031\nsamples = 511\nvalue = [503, 8]"] ;
278 -> 279 ;
280 [label="X[3] <= 0.457\ngini = 0.022\nsamples = 447\nvalue = [442, 5]"] ;
279 -> 280 ;
281 [label="X[6] <= 0.56\ngini = 0.015\nsamples = 408\nvalue = [405, 3]"] ;
280 -> 281 ;
282 [label="gini = 0.0\nsamples = 283\nvalue = [283, 0]"] ;
281 -> 282 ;
283 [label="X[1] <= 0.309\ngini = 0.047\nsamples = 125\nvalue = [122, 3]"] ;
281 -> 283 ;
284 [label="X[6] <= 0.801\ngini = 0.159\nsamples = 23\nvalue = [21, 2]"] ;
283 -> 284 ;
285 [label="gini = 0.32\nsamples = 10\nvalue = [8, 2]"] ;
284 -> 285 ;
286 [label="gini = 0.0\nsamples = 13\nvalue = [13, 0]"] ;
284 -> 286 ;
287 [label="X[3] <= 0.293\ngini = 0.019\nsamples = 102\nvalue = [101, 1]"] ;
283 -> 287 ;
288 [label="X[1] <= 0.338\ngini = 0.091\nsamples = 21\nvalue = [20, 1]"] ;
287 -> 288 ;
289 [label="gini = 0.0\nsamples = 11\nvalue = [11, 0]"] ;
288 -> 289 ;
290 [label="gini = 0.18\nsamples = 10\nvalue = [9, 1]"] ;
288 -> 290 ;
291 [label="gini = 0.0\nsamples = 81\nvalue = [81, 0]"] ;
287 -> 291 ;
292 [label="X[4] <= 0.374\ngini = 0.097\nsamples = 39\nvalue = [37, 2]"] ;
280 -> 292 ;
293 [label="gini = 0.0\nsamples = 29\nvalue = [29, 0]"] ;
292 -> 293 ;
294 [label="gini = 0.32\nsamples = 10\nvalue = [8, 2]"] ;
292 -> 294 ;
295 [label="X[6] <= 0.395\ngini = 0.089\nsamples = 64\nvalue = [61, 3]"] ;
279 -> 295 ;
296 [label="gini = 0.0\nsamples = 39\nvalue = [39, 0]"] ;
295 -> 296 ;
297 [label="X[2] <= 0.534\ngini = 0.211\nsamples = 25\nvalue = [22, 3]"] ;
295 -> 297 ;
298 [label="gini = 0.0\nsamples = 15\nvalue = [15, 0]"] ;
297 -> 298 ;
299 [label="gini = 0.42\nsamples = 10\nvalue = [7, 3]"] ;
297 -> 299 ;
300 [label="X[0] <= 0.651\ngini = 0.088\nsamples = 604\nvalue = [576, 28]"] ;
278 -> 300 ;
301 [label="X[5] <= 0.983\ngini = 0.254\nsamples = 47\nvalue = [40, 7]"] ;
300 -> 301 ;
302 [label="gini = 0.444\nsamples = 12\nvalue = [8, 4]"] ;
301 -> 302 ;
303 [label="X[2] <= 0.526\ngini = 0.157\nsamples = 35\nvalue = [32, 3]"] ;
301 -> 303 ;
304 [label="X[18] <= 0.5\ngini = 0.255\nsamples = 20\nvalue = [17, 3]"] ;
303 -> 304 ;
305 [label="gini = 0.18\nsamples = 10\nvalue = [9, 1]"] ;
304 -> 305 ;
306 [label="gini = 0.32\nsamples = 10\nvalue = [8, 2]"] ;
304 -> 306 ;
307 [label="gini = 0.0\nsamples = 15\nvalue = [15, 0]"] ;
303 -> 307 ;
308 [label="X[2] <= 0.546\ngini = 0.073\nsamples = 557\nvalue = [536, 21]"] ;
300 -> 308 ;
309 [label="X[3] <= 0.425\ngini = 0.034\nsamples = 292\nvalue = [287, 5]"] ;
308 -> 309 ;
310 [label="X[14] <= 0.5\ngini = 0.009\nsamples = 219\nvalue = [218, 1]"] ;
309 -> 310 ;
311 [label="gini = 0.0\nsamples = 209\nvalue = [209, 0]"] ;
310 -> 311 ;
312 [label="gini = 0.18\nsamples = 10\nvalue = [9, 1]"] ;
310 -> 312 ;
313 [label="X[2] <= 0.45\ngini = 0.104\nsamples = 73\nvalue = [69, 4]"] ;
309 -> 313 ;
314 [label="X[0] <= 0.729\ngini = 0.245\nsamples = 21\nvalue = [18, 3]"] ;
313 -> 314 ;
315 [label="gini = 0.165\nsamples = 11\nvalue = [10, 1]"] ;
314 -> 315 ;
316 [label="gini = 0.32\nsamples = 10\nvalue = [8, 2]"] ;
314 -> 316 ;
317 [label="X[3] <= 0.436\ngini = 0.038\nsamples = 52\nvalue = [51, 1]"] ;
313 -> 317 ;
318 [label="gini = 0.18\nsamples = 10\nvalue = [9, 1]"] ;
317 -> 318 ;
319 [label="gini = 0.0\nsamples = 42\nvalue = [42, 0]"] ;
317 -> 319 ;
320 [label="X[1] <= 0.302\ngini = 0.113\nsamples = 265\nvalue = [249, 16]"] ;
308 -> 320 ;
321 [label="gini = 0.375\nsamples = 12\nvalue = [9, 3]"] ;
320 -> 321 ;
322 [label="X[0] <= 0.7\ngini = 0.097\nsamples = 253\nvalue = [240, 13]"] ;
320 -> 322 ;
323 [label="gini = 0.0\nsamples = 65\nvalue = [65, 0]"] ;
322 -> 323 ;
324 [label="X[0] <= 0.721\ngini = 0.129\nsamples = 188\nvalue = [175, 13]"] ;
322 -> 324 ;
325 [label="X[2] <= 0.615\ngini = 0.32\nsamples = 25\nvalue = [20, 5]"] ;
324 -> 325 ;
326 [label="gini = 0.459\nsamples = 14\nvalue = [9, 5]"] ;
325 -> 326 ;
327 [label="gini = 0.0\nsamples = 11\nvalue = [11, 0]"] ;
325 -> 327 ;
328 [label="X[0] <= 0.856\ngini = 0.093\nsamples = 163\nvalue = [155, 8]"] ;
324 -> 328 ;
329 [label="X[2] <= 0.579\ngini = 0.136\nsamples = 109\nvalue = [101, 8]"] ;
328 -> 329 ;
330 [label="gini = 0.0\nsamples = 30\nvalue = [30, 0]"] ;
329 -> 330 ;
331 [label="X[0] <= 0.793\ngini = 0.182\nsamples = 79\nvalue = [71, 8]"] ;
329 -> 331 ;
332 [label="X[0] <= 0.75\ngini = 0.081\nsamples = 47\nvalue = [45, 2]"] ;
331 -> 332 ;
333 [label="X[0] <= 0.74\ngini = 0.172\nsamples = 21\nvalue = [19, 2]"] ;
332 -> 333 ;
334 [label="gini = 0.0\nsamples = 11\nvalue = [11, 0]"] ;
333 -> 334 ;
335 [label="gini = 0.32\nsamples = 10\nvalue = [8, 2]"] ;
333 -> 335 ;
336 [label="gini = 0.0\nsamples = 26\nvalue = [26, 0]"] ;
332 -> 336 ;
337 [label="X[18] <= 0.5\ngini = 0.305\nsamples = 32\nvalue = [26, 6]"] ;
331 -> 337 ;
338 [label="gini = 0.117\nsamples = 16\nvalue = [15, 1]"] ;
337 -> 338 ;
339 [label="gini = 0.43\nsamples = 16\nvalue = [11, 5]"] ;
337 -> 339 ;
340 [label="gini = 0.0\nsamples = 54\nvalue = [54, 0]"] ;
328 -> 340 ;
341 [label="X[5] <= 0.396\ngini = 0.125\nsamples = 1868\nvalue = [1743, 125]"] ;
249 -> 341 ;
342 [label="X[0] <= 0.793\ngini = 0.047\nsamples = 578\nvalue = [564, 14]"] ;
341 -> 342 ;
343 [label="X[1] <= 0.301\ngini = 0.022\nsamples = 453\nvalue = [448, 5]"] ;
342 -> 343 ;
344 [label="X[2] <= 0.55\ngini = 0.172\nsamples = 21\nvalue = [19, 2]"] ;
343 -> 344 ;
345 [label="gini = 0.0\nsamples = 11\nvalue = [11, 0]"] ;
344 -> 345 ;
346 [label="gini = 0.32\nsamples = 10\nvalue = [8, 2]"] ;
344 -> 346 ;
347 [label="X[3] <= 0.479\ngini = 0.014\nsamples = 432\nvalue = [429, 3]"] ;
343 -> 347 ;
348 [label="gini = 0.111\nsamples = 17\nvalue = [16, 1]"] ;
347 -> 348 ;
349 [label="X[6] <= 0.266\ngini = 0.01\nsamples = 415\nvalue = [413, 2]"] ;
347 -> 349 ;
350 [label="X[0] <= 0.498\ngini = 0.028\nsamples = 143\nvalue = [141, 2]"] ;
349 -> 350 ;
351 [label="gini = 0.18\nsamples = 10\nvalue = [9, 1]"] ;
350 -> 351 ;
352 [label="X[6] <= 0.096\ngini = 0.015\nsamples = 133\nvalue = [132, 1]"] ;
350 -> 352 ;
353 [label="gini = 0.0\nsamples = 123\nvalue = [123, 0]"] ;
352 -> 353 ;
354 [label="gini = 0.18\nsamples = 10\nvalue = [9, 1]"] ;
352 -> 354 ;
355 [label="gini = 0.0\nsamples = 272\nvalue = [272, 0]"] ;
349 -> 355 ;
356 [label="X[0] <= 0.809\ngini = 0.134\nsamples = 125\nvalue = [116, 9]"] ;
342 -> 356 ;
357 [label="X[3] <= 0.555\ngini = 0.375\nsamples = 20\nvalue = [15, 5]"] ;
356 -> 357 ;
358 [label="gini = 0.48\nsamples = 10\nvalue = [6, 4]"] ;
357 -> 358 ;
359 [label="gini = 0.18\nsamples = 10\nvalue = [9, 1]"] ;
357 -> 359 ;
360 [label="X[0] <= 0.935\ngini = 0.073\nsamples = 105\nvalue = [101, 4]"] ;
356 -> 360 ;
361 [label="X[1] <= 0.346\ngini = 0.044\nsamples = 89\nvalue = [87, 2]"] ;
360 -> 361 ;
362 [label="gini = 0.0\nsamples = 57\nvalue = [57, 0]"] ;
361 -> 362 ;
363 [label="X[5] <= 0.041\ngini = 0.117\nsamples = 32\nvalue = [30, 2]"] ;
361 -> 363 ;
364 [label="gini = 0.0\nsamples = 21\nvalue = [21, 0]"] ;
363 -> 364 ;
365 [label="gini = 0.298\nsamples = 11\nvalue = [9, 2]"] ;
363 -> 365 ;
366 [label="gini = 0.219\nsamples = 16\nvalue = [14, 2]"] ;
360 -> 366 ;
367 [label="X[6] <= 0.579\ngini = 0.157\nsamples = 1290\nvalue = [1179, 111]"] ;
341 -> 367 ;
368 [label="X[0] <= 0.886\ngini = 0.146\nsamples = 1276\nvalue = [1175, 101]"] ;
367 -> 368 ;
369 [label="X[3] <= 0.489\ngini = 0.128\nsamples = 1166\nvalue = [1086, 80]"] ;
368 -> 369 ;
370 [label="X[3] <= 0.489\ngini = 0.232\nsamples = 164\nvalue = [142, 22]"] ;
369 -> 370 ;
371 [label="X[2] <= 0.618\ngini = 0.155\nsamples = 154\nvalue = [141, 13]"] ;
370 -> 371 ;
372 [label="X[1] <= 0.349\ngini = 0.047\nsamples = 125\nvalue = [122, 3]"] ;
371 -> 372 ;
373 [label="X[1] <= 0.301\ngini = 0.019\nsamples = 103\nvalue = [102, 1]"] ;
372 -> 373 ;
374 [label="gini = 0.165\nsamples = 11\nvalue = [10, 1]"] ;
373 -> 374 ;
375 [label="gini = 0.0\nsamples = 92\nvalue = [92, 0]"] ;
373 -> 375 ;
376 [label="X[3] <= 0.481\ngini = 0.165\nsamples = 22\nvalue = [20, 2]"] ;
372 -> 376 ;
377 [label="gini = 0.0\nsamples = 10\nvalue = [10, 0]"] ;
376 -> 377 ;
378 [label="gini = 0.278\nsamples = 12\nvalue = [10, 2]"] ;
376 -> 378 ;
379 [label="X[0] <= 0.742\ngini = 0.452\nsamples = 29\nvalue = [19, 10]"] ;
371 -> 379 ;
380 [label="gini = 0.375\nsamples = 16\nvalue = [12, 4]"] ;
379 -> 380 ;
381 [label="gini = 0.497\nsamples = 13\nvalue = [7, 6]"] ;
379 -> 381 ;
382 [label="gini = 0.18\nsamples = 10\nvalue = [1, 9]"] ;
370 -> 382 ;
383 [label="X[0] <= 0.704\ngini = 0.109\nsamples = 1002\nvalue = [944, 58]"] ;
369 -> 383 ;
384 [label="X[3] <= 0.571\ngini = 0.078\nsamples = 690\nvalue = [662, 28]"] ;
383 -> 384 ;
385 [label="X[3] <= 0.545\ngini = 0.051\nsamples = 462\nvalue = [450, 12]"] ;
384 -> 385 ;
386 [label="X[3] <= 0.537\ngini = 0.07\nsamples = 332\nvalue = [320, 12]"] ;
385 -> 386 ;
387 [label="X[2] <= 0.488\ngini = 0.047\nsamples = 288\nvalue = [281, 7]"] ;
386 -> 387 ;
388 [label="X[2] <= 0.478\ngini = 0.102\nsamples = 74\nvalue = [70, 4]"] ;
387 -> 388 ;
389 [label="X[3] <= 0.526\ngini = 0.038\nsamples = 51\nvalue = [50, 1]"] ;
388 -> 389 ;
390 [label="gini = 0.0\nsamples = 41\nvalue = [41, 0]"] ;
389 -> 390 ;
391 [label="gini = 0.18\nsamples = 10\nvalue = [9, 1]"] ;
389 -> 391 ;
392 [label="X[3] <= 0.504\ngini = 0.227\nsamples = 23\nvalue = [20, 3]"] ;
388 -> 392 ;
393 [label="gini = 0.397\nsamples = 11\nvalue = [8, 3]"] ;
392 -> 393 ;
394 [label="gini = 0.0\nsamples = 12\nvalue = [12, 0]"] ;
392 -> 394 ;
395 [label="X[1] <= 0.317\ngini = 0.028\nsamples = 214\nvalue = [211, 3]"] ;
387 -> 395 ;
396 [label="X[1] <= 0.315\ngini = 0.086\nsamples = 67\nvalue = [64, 3]"] ;
395 -> 396 ;
397 [label="gini = 0.0\nsamples = 50\nvalue = [50, 0]"] ;
396 -> 397 ;
398 [label="gini = 0.291\nsamples = 17\nvalue = [14, 3]"] ;
396 -> 398 ;
399 [label="gini = 0.0\nsamples = 147\nvalue = [147, 0]"] ;
395 -> 399 ;
400 [label="X[6] <= 0.013\ngini = 0.201\nsamples = 44\nvalue = [39, 5]"] ;
386 -> 400 ;
401 [label="X[2] <= 0.616\ngini = 0.111\nsamples = 34\nvalue = [32, 2]"] ;
400 -> 401 ;
402 [label="gini = 0.0\nsamples = 24\nvalue = [24, 0]"] ;
401 -> 402 ;
403 [label="gini = 0.32\nsamples = 10\nvalue = [8, 2]"] ;
401 -> 403 ;
404 [label="gini = 0.42\nsamples = 10\nvalue = [7, 3]"] ;
400 -> 404 ;
405 [label="gini = 0.0\nsamples = 130\nvalue = [130, 0]"] ;
385 -> 405 ;
406 [label="X[3] <= 0.573\ngini = 0.131\nsamples = 228\nvalue = [212, 16]"] ;
384 -> 406 ;
407 [label="gini = 0.375\nsamples = 16\nvalue = [12, 4]"] ;
406 -> 407 ;
408 [label="X[0] <= 0.621\ngini = 0.107\nsamples = 212\nvalue = [200, 12]"] ;
406 -> 408 ;
409 [label="X[1] <= 0.361\ngini = 0.029\nsamples = 134\nvalue = [132, 2]"] ;
408 -> 409 ;
410 [label="X[3] <= 0.584\ngini = 0.017\nsamples = 119\nvalue = [118, 1]"] ;
409 -> 410 ;
411 [label="X[1] <= 0.323\ngini = 0.083\nsamples = 23\nvalue = [22, 1]"] ;
410 -> 411 ;
412 [label="gini = 0.0\nsamples = 13\nvalue = [13, 0]"] ;
411 -> 412 ;
413 [label="gini = 0.18\nsamples = 10\nvalue = [9, 1]"] ;
411 -> 413 ;
414 [label="gini = 0.0\nsamples = 96\nvalue = [96, 0]"] ;
410 -> 414 ;
415 [label="gini = 0.124\nsamples = 15\nvalue = [14, 1]"] ;
409 -> 415 ;
416 [label="X[0] <= 0.667\ngini = 0.224\nsamples = 78\nvalue = [68, 10]"] ;
408 -> 416 ;
417 [label="X[3] <= 0.607\ngini = 0.337\nsamples = 42\nvalue = [33, 9]"] ;
416 -> 417 ;
418 [label="X[0] <= 0.647\ngini = 0.147\nsamples = 25\nvalue = [23, 2]"] ;
417 -> 418 ;
419 [label="gini = 0.32\nsamples = 10\nvalue = [8, 2]"] ;
418 -> 419 ;
420 [label="gini = 0.0\nsamples = 15\nvalue = [15, 0]"] ;
418 -> 420 ;
421 [label="gini = 0.484\nsamples = 17\nvalue = [10, 7]"] ;
417 -> 421 ;
422 [label="X[3] <= 0.588\ngini = 0.054\nsamples = 36\nvalue = [35, 1]"] ;
416 -> 422 ;
423 [label="gini = 0.18\nsamples = 10\nvalue = [9, 1]"] ;
422 -> 423 ;
424 [label="gini = 0.0\nsamples = 26\nvalue = [26, 0]"] ;
422 -> 424 ;
425 [label="X[0] <= 0.71\ngini = 0.174\nsamples = 312\nvalue = [282, 30]"] ;
383 -> 425 ;
426 [label="gini = 0.473\nsamples = 13\nvalue = [5, 8]"] ;
425 -> 426 ;
427 [label="X[0] <= 0.717\ngini = 0.136\nsamples = 299\nvalue = [277, 22]"] ;
425 -> 427 ;
428 [label="gini = 0.401\nsamples = 18\nvalue = [13, 5]"] ;
427 -> 428 ;
429 [label="X[6] <= 0.397\ngini = 0.114\nsamples = 281\nvalue = [264, 17]"] ;
427 -> 429 ;
430 [label="X[0] <= 0.755\ngini = 0.098\nsamples = 271\nvalue = [257, 14]"] ;
429 -> 430 ;
431 [label="gini = 0.0\nsamples = 74\nvalue = [74, 0]"] ;
430 -> 431 ;
432 [label="X[0] <= 0.779\ngini = 0.132\nsamples = 197\nvalue = [183, 14]"] ;
430 -> 432 ;
433 [label="X[3] <= 0.577\ngini = 0.289\nsamples = 40\nvalue = [33, 7]"] ;
432 -> 433 ;
434 [label="X[3] <= 0.541\ngini = 0.386\nsamples = 23\nvalue = [17, 6]"] ;
433 -> 434 ;
435 [label="gini = 0.142\nsamples = 13\nvalue = [12, 1]"] ;
434 -> 435 ;
436 [label="gini = 0.5\nsamples = 10\nvalue = [5, 5]"] ;
434 -> 436 ;
437 [label="gini = 0.111\nsamples = 17\nvalue = [16, 1]"] ;
433 -> 437 ;
438 [label="X[2] <= 0.577\ngini = 0.085\nsamples = 157\nvalue = [150, 7]"] ;
432 -> 438 ;
439 [label="X[2] <= 0.562\ngini = 0.159\nsamples = 69\nvalue = [63, 6]"] ;
438 -> 439 ;
440 [label="X[2] <= 0.512\ngini = 0.065\nsamples = 59\nvalue = [57, 2]"] ;
439 -> 440 ;
441 [label="gini = 0.0\nsamples = 33\nvalue = [33, 0]"] ;
440 -> 441 ;
442 [label="X[2] <= 0.542\ngini = 0.142\nsamples = 26\nvalue = [24, 2]"] ;
440 -> 442 ;
443 [label="gini = 0.32\nsamples = 10\nvalue = [8, 2]"] ;
442 -> 443 ;
444 [label="gini = 0.0\nsamples = 16\nvalue = [16, 0]"] ;
442 -> 444 ;
445 [label="gini = 0.48\nsamples = 10\nvalue = [6, 4]"] ;
439 -> 445 ;
446 [label="X[3] <= 0.617\ngini = 0.022\nsamples = 88\nvalue = [87, 1]"] ;
438 -> 446 ;
447 [label="gini = 0.0\nsamples = 78\nvalue = [78, 0]"] ;
446 -> 447 ;
448 [label="gini = 0.18\nsamples = 10\nvalue = [9, 1]"] ;
446 -> 448 ;
449 [label="gini = 0.42\nsamples = 10\nvalue = [7, 3]"] ;
429 -> 449 ;
450 [label="X[3] <= 0.48\ngini = 0.309\nsamples = 110\nvalue = [89, 21]"] ;
368 -> 450 ;
451 [label="gini = 0.48\nsamples = 10\nvalue = [4, 6]"] ;
450 -> 451 ;
452 [label="X[15] <= 0.5\ngini = 0.255\nsamples = 100\nvalue = [85, 15]"] ;
450 -> 452 ;
453 [label="X[3] <= 0.556\ngini = 0.124\nsamples = 75\nvalue = [70, 5]"] ;
452 -> 453 ;
454 [label="gini = 0.0\nsamples = 33\nvalue = [33, 0]"] ;
453 -> 454 ;
455 [label="X[1] <= 0.349\ngini = 0.21\nsamples = 42\nvalue = [37, 5]"] ;
453 -> 455 ;
456 [label="X[2] <= 0.645\ngini = 0.121\nsamples = 31\nvalue = [29, 2]"] ;
455 -> 456 ;
457 [label="gini = 0.0\nsamples = 20\nvalue = [20, 0]"] ;
456 -> 457 ;
458 [label="gini = 0.298\nsamples = 11\nvalue = [9, 2]"] ;
456 -> 458 ;
459 [label="gini = 0.397\nsamples = 11\nvalue = [8, 3]"] ;
455 -> 459 ;
460 [label="X[5] <= 0.898\ngini = 0.48\nsamples = 25\nvalue = [15, 10]"] ;
452 -> 460 ;
461 [label="gini = 0.355\nsamples = 13\nvalue = [10, 3]"] ;
460 -> 461 ;
462 [label="gini = 0.486\nsamples = 12\nvalue = [5, 7]"] ;
460 -> 462 ;
463 [label="gini = 0.408\nsamples = 14\nvalue = [4, 10]"] ;
367 -> 463 ;
464 [label="X[2] <= 0.596\ngini = 0.163\nsamples = 4616\nvalue = [4204, 412]"] ;
2 -> 464 ;
465 [label="X[3] <= 0.419\ngini = 0.112\nsamples = 2846\nvalue = [2677, 169]"] ;
464 -> 465 ;
466 [label="X[0] <= 0.746\ngini = 0.045\nsamples = 1001\nvalue = [978, 23]"] ;
465 -> 466 ;
467 [label="X[5] <= 0.001\ngini = 0.015\nsamples = 680\nvalue = [675, 5]"] ;
466 -> 467 ;
468 [label="gini = 0.18\nsamples = 10\nvalue = [9, 1]"] ;
467 -> 468 ;
469 [label="X[6] <= 0.011\ngini = 0.012\nsamples = 670\nvalue = [666, 4]"] ;
467 -> 469 ;
470 [label="gini = 0.0\nsamples = 303\nvalue = [303, 0]"] ;
469 -> 470 ;
471 [label="X[5] <= 0.775\ngini = 0.022\nsamples = 367\nvalue = [363, 4]"] ;
469 -> 471 ;
472 [label="gini = 0.0\nsamples = 265\nvalue = [265, 0]"] ;
471 -> 472 ;
473 [label="X[3] <= 0.265\ngini = 0.075\nsamples = 102\nvalue = [98, 4]"] ;
471 -> 473 ;
474 [label="gini = 0.0\nsamples = 30\nvalue = [30, 0]"] ;
473 -> 474 ;
475 [label="X[3] <= 0.33\ngini = 0.105\nsamples = 72\nvalue = [68, 4]"] ;
473 -> 475 ;
476 [label="X[3] <= 0.306\ngini = 0.185\nsamples = 29\nvalue = [26, 3]"] ;
475 -> 476 ;
477 [label="gini = 0.1\nsamples = 19\nvalue = [18, 1]"] ;
476 -> 477 ;
478 [label="gini = 0.32\nsamples = 10\nvalue = [8, 2]"] ;
476 -> 478 ;
479 [label="X[5] <= 0.836\ngini = 0.045\nsamples = 43\nvalue = [42, 1]"] ;
475 -> 479 ;
480 [label="gini = 0.18\nsamples = 10\nvalue = [9, 1]"] ;
479 -> 480 ;
481 [label="gini = 0.0\nsamples = 33\nvalue = [33, 0]"] ;
479 -> 481 ;
482 [label="X[0] <= 0.75\ngini = 0.106\nsamples = 321\nvalue = [303, 18]"] ;
466 -> 482 ;
483 [label="gini = 0.391\nsamples = 15\nvalue = [11, 4]"] ;
482 -> 483 ;
484 [label="X[15] <= 0.5\ngini = 0.087\nsamples = 306\nvalue = [292, 14]"] ;
482 -> 484 ;
485 [label="X[2] <= 0.532\ngini = 0.113\nsamples = 232\nvalue = [218, 14]"] ;
484 -> 485 ;
486 [label="X[2] <= 0.497\ngini = 0.155\nsamples = 142\nvalue = [130, 12]"] ;
485 -> 486 ;
487 [label="X[1] <= 0.386\ngini = 0.066\nsamples = 88\nvalue = [85, 3]"] ;
486 -> 487 ;
488 [label="X[3] <= 0.349\ngini = 0.159\nsamples = 23\nvalue = [21, 2]"] ;
487 -> 488 ;
489 [label="gini = 0.32\nsamples = 10\nvalue = [8, 2]"] ;
488 -> 489 ;
490 [label="gini = 0.0\nsamples = 13\nvalue = [13, 0]"] ;
488 -> 490 ;
491 [label="X[0] <= 0.762\ngini = 0.03\nsamples = 65\nvalue = [64, 1]"] ;
487 -> 491 ;
492 [label="gini = 0.18\nsamples = 10\nvalue = [9, 1]"] ;
491 -> 492 ;
493 [label="gini = 0.0\nsamples = 55\nvalue = [55, 0]"] ;
491 -> 493 ;
494 [label="X[2] <= 0.501\ngini = 0.278\nsamples = 54\nvalue = [45, 9]"] ;
486 -> 494 ;
495 [label="gini = 0.48\nsamples = 10\nvalue = [6, 4]"] ;
494 -> 495 ;
496 [label="X[0] <= 0.852\ngini = 0.201\nsamples = 44\nvalue = [39, 5]"] ;
494 -> 496 ;
497 [label="gini = 0.0\nsamples = 20\nvalue = [20, 0]"] ;
496 -> 497 ;
498 [label="X[0] <= 0.905\ngini = 0.33\nsamples = 24\nvalue = [19, 5]"] ;
496 -> 498 ;
499 [label="gini = 0.408\nsamples = 14\nvalue = [10, 4]"] ;
498 -> 499 ;
500 [label="gini = 0.18\nsamples = 10\nvalue = [9, 1]"] ;
498 -> 500 ;
501 [label="X[5] <= 0.401\ngini = 0.043\nsamples = 90\nvalue = [88, 2]"] ;
485 -> 501 ;
502 [label="X[4] <= 0.664\ngini = 0.172\nsamples = 21\nvalue = [19, 2]"] ;
501 -> 502 ;
503 [label="gini = 0.32\nsamples = 10\nvalue = [8, 2]"] ;
502 -> 503 ;
504 [label="gini = 0.0\nsamples = 11\nvalue = [11, 0]"] ;
502 -> 504 ;
505 [label="gini = 0.0\nsamples = 69\nvalue = [69, 0]"] ;
501 -> 505 ;
506 [label="gini = 0.0\nsamples = 74\nvalue = [74, 0]"] ;
484 -> 506 ;
507 [label="X[6] <= 0.246\ngini = 0.146\nsamples = 1845\nvalue = [1699, 146]"] ;
465 -> 507 ;
508 [label="X[6] <= 0.208\ngini = 0.185\nsamples = 1194\nvalue = [1071, 123]"] ;
507 -> 508 ;
509 [label="X[3] <= 0.426\ngini = 0.174\nsamples = 1161\nvalue = [1049, 112]"] ;
508 -> 509 ;
510 [label="X[3] <= 0.425\ngini = 0.432\nsamples = 38\nvalue = [26, 12]"] ;
509 -> 510 ;
511 [label="X[1] <= 0.453\ngini = 0.191\nsamples = 28\nvalue = [25, 3]"] ;
510 -> 511 ;
512 [label="gini = 0.0\nsamples = 18\nvalue = [18, 0]"] ;
511 -> 512 ;
513 [label="gini = 0.42\nsamples = 10\nvalue = [7, 3]"] ;
511 -> 513 ;
514 [label="gini = 0.18\nsamples = 10\nvalue = [1, 9]"] ;
510 -> 514 ;
515 [label="X[3] <= 0.481\ngini = 0.162\nsamples = 1123\nvalue = [1023, 100]"] ;
509 -> 515 ;
516 [label="X[0] <= 0.836\ngini = 0.078\nsamples = 271\nvalue = [260, 11]"] ;
515 -> 516 ;
517 [label="X[4] <= 0.74\ngini = 0.052\nsamples = 225\nvalue = [219, 6]"] ;
516 -> 517 ;
518 [label="X[2] <= 0.486\ngini = 0.038\nsamples = 209\nvalue = [205, 4]"] ;
517 -> 518 ;
519 [label="X[0] <= 0.676\ngini = 0.101\nsamples = 75\nvalue = [71, 4]"] ;
518 -> 519 ;
520 [label="gini = 0.0\nsamples = 41\nvalue = [41, 0]"] ;
519 -> 520 ;
521 [label="X[0] <= 0.72\ngini = 0.208\nsamples = 34\nvalue = [30, 4]"] ;
519 -> 521 ;
522 [label="gini = 0.375\nsamples = 12\nvalue = [9, 3]"] ;
521 -> 522 ;
523 [label="X[0] <= 0.782\ngini = 0.087\nsamples = 22\nvalue = [21, 1]"] ;
521 -> 523 ;
524 [label="gini = 0.0\nsamples = 12\nvalue = [12, 0]"] ;
523 -> 524 ;
525 [label="gini = 0.18\nsamples = 10\nvalue = [9, 1]"] ;
523 -> 525 ;
526 [label="gini = 0.0\nsamples = 134\nvalue = [134, 0]"] ;
518 -> 526 ;
527 [label="gini = 0.219\nsamples = 16\nvalue = [14, 2]"] ;
517 -> 527 ;
528 [label="X[3] <= 0.456\ngini = 0.194\nsamples = 46\nvalue = [41, 5]"] ;
516 -> 528 ;
529 [label="gini = 0.0\nsamples = 25\nvalue = [25, 0]"] ;
528 -> 529 ;
530 [label="X[5] <= 0.972\ngini = 0.363\nsamples = 21\nvalue = [16, 5]"] ;
528 -> 530 ;
531 [label="gini = 0.165\nsamples = 11\nvalue = [10, 1]"] ;
530 -> 531 ;
532 [label="gini = 0.48\nsamples = 10\nvalue = [6, 4]"] ;
530 -> 532 ;
533 [label="X[3] <= 0.482\ngini = 0.187\nsamples = 852\nvalue = [763, 89]"] ;
515 -> 533 ;
534 [label="gini = 0.0\nsamples = 11\nvalue = [0, 11]"] ;
533 -> 534 ;
535 [label="X[1] <= 0.536\ngini = 0.168\nsamples = 841\nvalue = [763, 78]"] ;
533 -> 535 ;
536 [label="X[0] <= 0.896\ngini = 0.158\nsamples = 807\nvalue = [737, 70]"] ;
535 -> 536 ;
537 [label="X[6] <= 0.075\ngini = 0.142\nsamples = 728\nvalue = [672, 56]"] ;
536 -> 537 ;
538 [label="X[6] <= 0.065\ngini = 0.157\nsamples = 642\nvalue = [587, 55]"] ;
537 -> 538 ;
539 [label="X[3] <= 0.568\ngini = 0.143\nsamples = 632\nvalue = [583, 49]"] ;
538 -> 539 ;
540 [label="X[4] <= 0.989\ngini = 0.113\nsamples = 416\nvalue = [391, 25]"] ;
539 -> 540 ;
541 [label="X[3] <= 0.512\ngini = 0.096\nsamples = 395\nvalue = [375, 20]"] ;
540 -> 541 ;
542 [label="X[3] <= 0.51\ngini = 0.172\nsamples = 147\nvalue = [133, 14]"] ;
541 -> 542 ;
543 [label="X[2] <= 0.523\ngini = 0.135\nsamples = 137\nvalue = [127, 10]"] ;
542 -> 543 ;
544 [label="X[0] <= 0.748\ngini = 0.298\nsamples = 44\nvalue = [36, 8]"] ;
543 -> 544 ;
545 [label="gini = 0.111\nsamples = 34\nvalue = [32, 2]"] ;
544 -> 545 ;
546 [label="gini = 0.48\nsamples = 10\nvalue = [4, 6]"] ;
544 -> 546 ;
547 [label="X[2] <= 0.584\ngini = 0.042\nsamples = 93\nvalue = [91, 2]"] ;
543 -> 547 ;
548 [label="gini = 0.0\nsamples = 74\nvalue = [74, 0]"] ;
547 -> 548 ;
549 [label="gini = 0.188\nsamples = 19\nvalue = [17, 2]"] ;
547 -> 549 ;
550 [label="gini = 0.48\nsamples = 10\nvalue = [6, 4]"] ;
542 -> 550 ;
551 [label="X[0] <= 0.814\ngini = 0.047\nsamples = 248\nvalue = [242, 6]"] ;
541 -> 551 ;
552 [label="X[1] <= 0.464\ngini = 0.028\nsamples = 210\nvalue = [207, 3]"] ;
551 -> 552 ;
553 [label="X[2] <= 0.574\ngini = 0.011\nsamples = 174\nvalue = [173, 1]"] ;
552 -> 553 ;
554 [label="gini = 0.0\nsamples = 136\nvalue = [136, 0]"] ;
553 -> 554 ;
555 [label="gini = 0.051\nsamples = 38\nvalue = [37, 1]"] ;
553 -> 555 ;
556 [label="X[18] <= 0.5\ngini = 0.105\nsamples = 36\nvalue = [34, 2]"] ;
552 -> 556 ;
557 [label="gini = 0.0\nsamples = 26\nvalue = [26, 0]"] ;
556 -> 557 ;
558 [label="gini = 0.32\nsamples = 10\nvalue = [8, 2]"] ;
556 -> 558 ;
559 [label="X[6] <= 0.003\ngini = 0.145\nsamples = 38\nvalue = [35, 3]"] ;
551 -> 559 ;
560 [label="X[0] <= 0.84\ngini = 0.069\nsamples = 28\nvalue = [27, 1]"] ;
559 -> 560 ;
561 [label="gini = 0.18\nsamples = 10\nvalue = [9, 1]"] ;
560 -> 561 ;
562 [label="gini = 0.0\nsamples = 18\nvalue = [18, 0]"] ;
560 -> 562 ;
563 [label="gini = 0.32\nsamples = 10\nvalue = [8, 2]"] ;
559 -> 563 ;
564 [label="X[3] <= 0.532\ngini = 0.363\nsamples = 21\nvalue = [16, 5]"] ;
540 -> 564 ;
565 [label="gini = 0.0\nsamples = 11\nvalue = [11, 0]"] ;
564 -> 565 ;
566 [label="gini = 0.5\nsamples = 10\nvalue = [5, 5]"] ;
564 -> 566 ;
567 [label="X[1] <= 0.39\ngini = 0.198\nsamples = 216\nvalue = [192, 24]"] ;
539 -> 567 ;
568 [label="X[5] <= 0.982\ngini = 0.383\nsamples = 58\nvalue = [43, 15]"] ;
567 -> 568 ;
569 [label="gini = 0.0\nsamples = 11\nvalue = [11, 0]"] ;
568 -> 569 ;
570 [label="X[18] <= 0.5\ngini = 0.435\nsamples = 47\nvalue = [32, 15]"] ;
568 -> 570 ;
571 [label="X[0] <= 0.696\ngini = 0.495\nsamples = 29\nvalue = [16, 13]"] ;
570 -> 571 ;
572 [label="gini = 0.488\nsamples = 19\nvalue = [8, 11]"] ;
571 -> 572 ;
573 [label="gini = 0.32\nsamples = 10\nvalue = [8, 2]"] ;
571 -> 573 ;
574 [label="gini = 0.198\nsamples = 18\nvalue = [16, 2]"] ;
570 -> 574 ;
575 [label="X[6] <= 0.013\ngini = 0.107\nsamples = 158\nvalue = [149, 9]"] ;
567 -> 575 ;
576 [label="X[0] <= 0.69\ngini = 0.071\nsamples = 135\nvalue = [130, 5]"] ;
575 -> 576 ;
577 [label="X[0] <= 0.673\ngini = 0.121\nsamples = 62\nvalue = [58, 4]"] ;
576 -> 577 ;
578 [label="X[2] <= 0.526\ngini = 0.074\nsamples = 52\nvalue = [50, 2]"] ;
577 -> 578 ;
579 [label="gini = 0.231\nsamples = 15\nvalue = [13, 2]"] ;
578 -> 579 ;
580 [label="gini = 0.0\nsamples = 37\nvalue = [37, 0]"] ;
578 -> 580 ;
581 [label="gini = 0.32\nsamples = 10\nvalue = [8, 2]"] ;
577 -> 581 ;
582 [label="X[1] <= 0.406\ngini = 0.027\nsamples = 73\nvalue = [72, 1]"] ;
576 -> 582 ;
583 [label="gini = 0.165\nsamples = 11\nvalue = [10, 1]"] ;
582 -> 583 ;
584 [label="gini = 0.0\nsamples = 62\nvalue = [62, 0]"] ;
582 -> 584 ;
585 [label="X[0] <= 0.738\ngini = 0.287\nsamples = 23\nvalue = [19, 4]"] ;
575 -> 585 ;
586 [label="gini = 0.0\nsamples = 13\nvalue = [13, 0]"] ;
585 -> 586 ;
587 [label="gini = 0.48\nsamples = 10\nvalue = [6, 4]"] ;
585 -> 587 ;
588 [label="gini = 0.48\nsamples = 10\nvalue = [4, 6]"] ;
538 -> 588 ;
589 [label="X[6] <= 0.188\ngini = 0.023\nsamples = 86\nvalue = [85, 1]"] ;
537 -> 589 ;
590 [label="gini = 0.0\nsamples = 76\nvalue = [76, 0]"] ;
589 -> 590 ;
591 [label="gini = 0.18\nsamples = 10\nvalue = [9, 1]"] ;
589 -> 591 ;
592 [label="X[0] <= 0.902\ngini = 0.292\nsamples = 79\nvalue = [65, 14]"] ;
536 -> 592 ;
593 [label="gini = 0.496\nsamples = 11\nvalue = [5, 6]"] ;
592 -> 593 ;
594 [label="X[5] <= 0.92\ngini = 0.208\nsamples = 68\nvalue = [60, 8]"] ;
592 -> 594 ;
595 [label="gini = 0.415\nsamples = 17\nvalue = [12, 5]"] ;
594 -> 595 ;
596 [label="X[2] <= 0.538\ngini = 0.111\nsamples = 51\nvalue = [48, 3]"] ;
594 -> 596 ;
597 [label="gini = 0.278\nsamples = 12\nvalue = [10, 2]"] ;
596 -> 597 ;
598 [label="X[1] <= 0.478\ngini = 0.05\nsamples = 39\nvalue = [38, 1]"] ;
596 -> 598 ;
599 [label="gini = 0.0\nsamples = 29\nvalue = [29, 0]"] ;
598 -> 599 ;
600 [label="gini = 0.18\nsamples = 10\nvalue = [9, 1]"] ;
598 -> 600 ;
601 [label="X[2] <= 0.576\ngini = 0.36\nsamples = 34\nvalue = [26, 8]"] ;
535 -> 601 ;
602 [label="X[3] <= 0.539\ngini = 0.463\nsamples = 22\nvalue = [14, 8]"] ;
601 -> 602 ;
603 [label="gini = 0.165\nsamples = 11\nvalue = [10, 1]"] ;
602 -> 603 ;
604 [label="gini = 0.463\nsamples = 11\nvalue = [4, 7]"] ;
602 -> 604 ;
605 [label="gini = 0.0\nsamples = 12\nvalue = [12, 0]"] ;
601 -> 605 ;
606 [label="X[0] <= 0.816\ngini = 0.444\nsamples = 33\nvalue = [22, 11]"] ;
508 -> 606 ;
607 [label="gini = 0.111\nsamples = 17\nvalue = [16, 1]"] ;
606 -> 607 ;
608 [label="gini = 0.469\nsamples = 16\nvalue = [6, 10]"] ;
606 -> 608 ;
609 [label="X[6] <= 0.997\ngini = 0.068\nsamples = 651\nvalue = [628, 23]"] ;
507 -> 609 ;
610 [label="X[3] <= 0.627\ngini = 0.05\nsamples = 626\nvalue = [610, 16]"] ;
609 -> 610 ;
611 [label="X[8] <= 0.5\ngini = 0.042\nsamples = 608\nvalue = [595, 13]"] ;
610 -> 611 ;
612 [label="X[2] <= 0.578\ngini = 0.025\nsamples = 480\nvalue = [474, 6]"] ;
611 -> 612 ;
613 [label="X[6] <= 0.992\ngini = 0.014\nsamples = 425\nvalue = [422, 3]"] ;
612 -> 613 ;
614 [label="X[1] <= 0.373\ngini = 0.01\nsamples = 415\nvalue = [413, 2]"] ;
613 -> 614 ;
615 [label="X[6] <= 0.882\ngini = 0.071\nsamples = 27\nvalue = [26, 1]"] ;
614 -> 615 ;
616 [label="gini = 0.0\nsamples = 17\nvalue = [17, 0]"] ;
615 -> 616 ;
617 [label="gini = 0.18\nsamples = 10\nvalue = [9, 1]"] ;
615 -> 617 ;
618 [label="X[3] <= 0.581\ngini = 0.005\nsamples = 388\nvalue = [387, 1]"] ;
614 -> 618 ;
619 [label="gini = 0.0\nsamples = 322\nvalue = [322, 0]"] ;
618 -> 619 ;
620 [label="X[3] <= 0.584\ngini = 0.03\nsamples = 66\nvalue = [65, 1]"] ;
618 -> 620 ;
621 [label="gini = 0.18\nsamples = 10\nvalue = [9, 1]"] ;
620 -> 621 ;
622 [label="gini = 0.0\nsamples = 56\nvalue = [56, 0]"] ;
620 -> 622 ;
623 [label="gini = 0.18\nsamples = 10\nvalue = [9, 1]"] ;
613 -> 623 ;
624 [label="X[1] <= 0.405\ngini = 0.103\nsamples = 55\nvalue = [52, 3]"] ;
612 -> 624 ;
625 [label="gini = 0.266\nsamples = 19\nvalue = [16, 3]"] ;
624 -> 625 ;
626 [label="gini = 0.0\nsamples = 36\nvalue = [36, 0]"] ;
624 -> 626 ;
627 [label="X[0] <= 0.719\ngini = 0.103\nsamples = 128\nvalue = [121, 7]"] ;
611 -> 627 ;
628 [label="gini = 0.0\nsamples = 57\nvalue = [57, 0]"] ;
627 -> 628 ;
629 [label="X[3] <= 0.51\ngini = 0.178\nsamples = 71\nvalue = [64, 7]"] ;
627 -> 629 ;
630 [label="X[3] <= 0.478\ngini = 0.271\nsamples = 31\nvalue = [26, 5]"] ;
629 -> 630 ;
631 [label="X[0] <= 0.808\ngini = 0.095\nsamples = 20\nvalue = [19, 1]"] ;
630 -> 631 ;
632 [label="gini = 0.0\nsamples = 10\nvalue = [10, 0]"] ;
631 -> 632 ;
633 [label="gini = 0.18\nsamples = 10\nvalue = [9, 1]"] ;
631 -> 633 ;
634 [label="gini = 0.463\nsamples = 11\nvalue = [7, 4]"] ;
630 -> 634 ;
635 [label="X[5] <= 0.1\ngini = 0.095\nsamples = 40\nvalue = [38, 2]"] ;
629 -> 635 ;
636 [label="gini = 0.208\nsamples = 17\nvalue = [15, 2]"] ;
635 -> 636 ;
637 [label="gini = 0.0\nsamples = 23\nvalue = [23, 0]"] ;
635 -> 637 ;
638 [label="gini = 0.278\nsamples = 18\nvalue = [15, 3]"] ;
610 -> 638 ;
639 [label="X[3] <= 0.534\ngini = 0.403\nsamples = 25\nvalue = [18, 7]"] ;
609 -> 639 ;
640 [label="gini = 0.165\nsamples = 11\nvalue = [10, 1]"] ;
639 -> 640 ;
641 [label="gini = 0.49\nsamples = 14\nvalue = [8, 6]"] ;
639 -> 641 ;
642 [label="X[2] <= 0.71\ngini = 0.237\nsamples = 1770\nvalue = [1527, 243]"] ;
464 -> 642 ;
643 [label="X[0] <= 0.697\ngini = 0.212\nsamples = 1534\nvalue = [1349, 185]"] ;
642 -> 643 ;
644 [label="X[4] <= 0.964\ngini = 0.122\nsamples = 521\nvalue = [487, 34]"] ;
643 -> 644 ;
645 [label="X[3] <= 0.465\ngini = 0.111\nsamples = 510\nvalue = [480, 30]"] ;
644 -> 645 ;
646 [label="X[2] <= 0.603\ngini = 0.023\nsamples = 169\nvalue = [167, 2]"] ;
645 -> 646 ;
647 [label="gini = 0.18\nsamples = 10\nvalue = [9, 1]"] ;
646 -> 647 ;
648 [label="X[8] <= 0.5\ngini = 0.012\nsamples = 159\nvalue = [158, 1]"] ;
646 -> 648 ;
649 [label="gini = 0.0\nsamples = 149\nvalue = [149, 0]"] ;
648 -> 649 ;
650 [label="gini = 0.18\nsamples = 10\nvalue = [9, 1]"] ;
648 -> 650 ;
651 [label="X[2] <= 0.599\ngini = 0.151\nsamples = 341\nvalue = [313, 28]"] ;
645 -> 651 ;
652 [label="gini = 0.42\nsamples = 10\nvalue = [7, 3]"] ;
651 -> 652 ;
653 [label="X[2] <= 0.683\ngini = 0.14\nsamples = 331\nvalue = [306, 25]"] ;
651 -> 653 ;
654 [label="X[2] <= 0.676\ngini = 0.156\nsamples = 293\nvalue = [268, 25]"] ;
653 -> 654 ;
655 [label="X[2] <= 0.607\ngini = 0.134\nsamples = 278\nvalue = [258, 20]"] ;
654 -> 655 ;
656 [label="gini = 0.0\nsamples = 34\nvalue = [34, 0]"] ;
655 -> 656 ;
657 [label="X[0] <= 0.494\ngini = 0.15\nsamples = 244\nvalue = [224, 20]"] ;
655 -> 657 ;
658 [label="X[5] <= 0.995\ngini = 0.287\nsamples = 23\nvalue = [19, 4]"] ;
657 -> 658 ;
659 [label="gini = 0.444\nsamples = 12\nvalue = [8, 4]"] ;
658 -> 659 ;
660 [label="gini = 0.0\nsamples = 11\nvalue = [11, 0]"] ;
658 -> 660 ;
661 [label="X[0] <= 0.579\ngini = 0.134\nsamples = 221\nvalue = [205, 16]"] ;
657 -> 661 ;
662 [label="gini = 0.0\nsamples = 54\nvalue = [54, 0]"] ;
661 -> 662 ;
663 [label="X[0] <= 0.612\ngini = 0.173\nsamples = 167\nvalue = [151, 16]"] ;
661 -> 663 ;
664 [label="X[2] <= 0.629\ngini = 0.308\nsamples = 42\nvalue = [34, 8]"] ;
663 -> 664 ;
665 [label="X[3] <= 0.557\ngini = 0.444\nsamples = 21\nvalue = [14, 7]"] ;
664 -> 665 ;
666 [label="gini = 0.32\nsamples = 10\nvalue = [8, 2]"] ;
665 -> 666 ;
667 [label="gini = 0.496\nsamples = 11\nvalue = [6, 5]"] ;
665 -> 667 ;
668 [label="X[0] <= 0.602\ngini = 0.091\nsamples = 21\nvalue = [20, 1]"] ;
664 -> 668 ;
669 [label="gini = 0.0\nsamples = 11\nvalue = [11, 0]"] ;
668 -> 669 ;
670 [label="gini = 0.18\nsamples = 10\nvalue = [9, 1]"] ;
668 -> 670 ;
671 [label="X[18] <= 0.5\ngini = 0.12\nsamples = 125\nvalue = [117, 8]"] ;
663 -> 671 ;
672 [label="X[1] <= 0.475\ngini = 0.075\nsamples = 103\nvalue = [99, 4]"] ;
671 -> 672 ;
673 [label="gini = 0.0\nsamples = 66\nvalue = [66, 0]"] ;
672 -> 673 ;
674 [label="X[2] <= 0.634\ngini = 0.193\nsamples = 37\nvalue = [33, 4]"] ;
672 -> 674 ;
675 [label="gini = 0.0\nsamples = 13\nvalue = [13, 0]"] ;
674 -> 675 ;
676 [label="X[2] <= 0.654\ngini = 0.278\nsamples = 24\nvalue = [20, 4]"] ;
674 -> 676 ;
677 [label="gini = 0.408\nsamples = 14\nvalue = [10, 4]"] ;
676 -> 677 ;
678 [label="gini = 0.0\nsamples = 10\nvalue = [10, 0]"] ;
676 -> 678 ;
679 [label="X[2] <= 0.632\ngini = 0.298\nsamples = 22\nvalue = [18, 4]"] ;
671 -> 679 ;
680 [label="gini = 0.375\nsamples = 12\nvalue = [9, 3]"] ;
679 -> 680 ;
681 [label="gini = 0.18\nsamples = 10\nvalue = [9, 1]"] ;
679 -> 681 ;
682 [label="gini = 0.444\nsamples = 15\nvalue = [10, 5]"] ;
654 -> 682 ;
683 [label="gini = 0.0\nsamples = 38\nvalue = [38, 0]"] ;
653 -> 683 ;
684 [label="gini = 0.463\nsamples = 11\nvalue = [7, 4]"] ;
644 -> 684 ;
685 [label="X[3] <= 0.51\ngini = 0.254\nsamples = 1013\nvalue = [862, 151]"] ;
643 -> 685 ;
686 [label="X[0] <= 0.713\ngini = 0.173\nsamples = 407\nvalue = [368, 39]"] ;
685 -> 686 ;
687 [label="X[2] <= 0.625\ngini = 0.42\nsamples = 20\nvalue = [14, 6]"] ;
686 -> 687 ;
688 [label="gini = 0.5\nsamples = 10\nvalue = [5, 5]"] ;
687 -> 688 ;
689 [label="gini = 0.18\nsamples = 10\nvalue = [9, 1]"] ;
687 -> 689 ;
690 [label="X[1] <= 0.52\ngini = 0.156\nsamples = 387\nvalue = [354, 33]"] ;
686 -> 690 ;
691 [label="X[0] <= 0.776\ngini = 0.118\nsamples = 317\nvalue = [297, 20]"] ;
690 -> 691 ;
692 [label="X[5] <= 0.172\ngini = 0.236\nsamples = 73\nvalue = [63, 10]"] ;
691 -> 692 ;
693 [label="gini = 0.48\nsamples = 10\nvalue = [6, 4]"] ;
692 -> 693 ;
694 [label="X[0] <= 0.77\ngini = 0.172\nsamples = 63\nvalue = [57, 6]"] ;
692 -> 694 ;
695 [label="X[0] <= 0.724\ngini = 0.107\nsamples = 53\nvalue = [50, 3]"] ;
694 -> 695 ;
696 [label="gini = 0.32\nsamples = 10\nvalue = [8, 2]"] ;
695 -> 696 ;
697 [label="X[3] <= 0.39\ngini = 0.045\nsamples = 43\nvalue = [42, 1]"] ;
695 -> 697 ;
698 [label="gini = 0.18\nsamples = 10\nvalue = [9, 1]"] ;
697 -> 698 ;
699 [label="gini = 0.0\nsamples = 33\nvalue = [33, 0]"] ;
697 -> 699 ;
700 [label="gini = 0.42\nsamples = 10\nvalue = [7, 3]"] ;
694 -> 700 ;
701 [label="X[2] <= 0.602\ngini = 0.079\nsamples = 244\nvalue = [234, 10]"] ;
691 -> 701 ;
702 [label="gini = 0.291\nsamples = 17\nvalue = [14, 3]"] ;
701 -> 702 ;
703 [label="X[6] <= 0.019\ngini = 0.06\nsamples = 227\nvalue = [220, 7]"] ;
701 -> 703 ;
704 [label="X[6] <= 0.012\ngini = 0.117\nsamples = 112\nvalue = [105, 7]"] ;
703 -> 704 ;
705 [label="X[3] <= 0.309\ngini = 0.078\nsamples = 98\nvalue = [94, 4]"] ;
704 -> 705 ;
706 [label="X[3] <= 0.256\ngini = 0.236\nsamples = 22\nvalue = [19, 3]"] ;
705 -> 706 ;
707 [label="gini = 0.0\nsamples = 12\nvalue = [12, 0]"] ;
706 -> 707 ;
708 [label="gini = 0.42\nsamples = 10\nvalue = [7, 3]"] ;
706 -> 708 ;
709 [label="X[1] <= 0.478\ngini = 0.026\nsamples = 76\nvalue = [75, 1]"] ;
705 -> 709 ;
710 [label="gini = 0.0\nsamples = 63\nvalue = [63, 0]"] ;
709 -> 710 ;
711 [label="gini = 0.142\nsamples = 13\nvalue = [12, 1]"] ;
709 -> 711 ;
712 [label="gini = 0.337\nsamples = 14\nvalue = [11, 3]"] ;
704 -> 712 ;
713 [label="gini = 0.0\nsamples = 115\nvalue = [115, 0]"] ;
703 -> 713 ;
714 [label="X[0] <= 0.828\ngini = 0.302\nsamples = 70\nvalue = [57, 13]"] ;
690 -> 714 ;
715 [label="X[2] <= 0.65\ngini = 0.142\nsamples = 39\nvalue = [36, 3]"] ;
714 -> 715 ;
716 [label="gini = 0.0\nsamples = 22\nvalue = [22, 0]"] ;
715 -> 716 ;
717 [label="gini = 0.291\nsamples = 17\nvalue = [14, 3]"] ;
715 -> 717 ;
718 [label="X[2] <= 0.631\ngini = 0.437\nsamples = 31\nvalue = [21, 10]"] ;
714 -> 718 ;
719 [label="gini = 0.5\nsamples = 10\nvalue = [5, 5]"] ;
718 -> 719 ;
720 [label="X[6] <= 0.023\ngini = 0.363\nsamples = 21\nvalue = [16, 5]"] ;
718 -> 720 ;
721 [label="gini = 0.48\nsamples = 10\nvalue = [6, 4]"] ;
720 -> 721 ;
722 [label="gini = 0.165\nsamples = 11\nvalue = [10, 1]"] ;
720 -> 722 ;
723 [label="X[18] <= 0.5\ngini = 0.301\nsamples = 606\nvalue = [494, 112]"] ;
685 -> 723 ;
724 [label="X[5] <= 0.048\ngini = 0.267\nsamples = 492\nvalue = [414, 78]"] ;
723 -> 724 ;
725 [label="X[2] <= 0.648\ngini = 0.122\nsamples = 92\nvalue = [86, 6]"] ;
724 -> 725 ;
726 [label="X[1] <= 0.514\ngini = 0.227\nsamples = 46\nvalue = [40, 6]"] ;
725 -> 726 ;
727 [label="X[4] <= 0.939\ngini = 0.312\nsamples = 31\nvalue = [25, 6]"] ;
726 -> 727 ;
728 [label="gini = 0.401\nsamples = 18\nvalue = [13, 5]"] ;
727 -> 728 ;
729 [label="gini = 0.142\nsamples = 13\nvalue = [12, 1]"] ;
727 -> 729 ;
730 [label="gini = 0.0\nsamples = 15\nvalue = [15, 0]"] ;
726 -> 730 ;
731 [label="gini = 0.0\nsamples = 46\nvalue = [46, 0]"] ;
725 -> 731 ;
732 [label="X[4] <= 0.464\ngini = 0.295\nsamples = 400\nvalue = [328, 72]"] ;
724 -> 732 ;
733 [label="X[0] <= 0.858\ngini = 0.272\nsamples = 388\nvalue = [325, 63]"] ;
732 -> 733 ;
734 [label="X[3] <= 0.522\ngini = 0.212\nsamples = 241\nvalue = [212, 29]"] ;
733 -> 734 ;
735 [label="gini = 0.473\nsamples = 13\nvalue = [8, 5]"] ;
734 -> 735 ;
736 [label="X[5] <= 0.991\ngini = 0.188\nsamples = 228\nvalue = [204, 24]"] ;
734 -> 736 ;
737 [label="X[0] <= 0.709\ngini = 0.128\nsamples = 160\nvalue = [149, 11]"] ;
736 -> 737 ;
738 [label="gini = 0.375\nsamples = 12\nvalue = [9, 3]"] ;
737 -> 738 ;
739 [label="X[1] <= 0.637\ngini = 0.102\nsamples = 148\nvalue = [140, 8]"] ;
737 -> 739 ;
740 [label="X[3] <= 0.592\ngini = 0.073\nsamples = 131\nvalue = [126, 5]"] ;
739 -> 740 ;
741 [label="X[3] <= 0.58\ngini = 0.12\nsamples = 78\nvalue = [73, 5]"] ;
740 -> 741 ;
742 [label="X[6] <= 0.08\ngini = 0.057\nsamples = 68\nvalue = [66, 2]"] ;
741 -> 742 ;
743 [label="gini = 0.198\nsamples = 18\nvalue = [16, 2]"] ;
742 -> 743 ;
744 [label="gini = 0.0\nsamples = 50\nvalue = [50, 0]"] ;
742 -> 744 ;
745 [label="gini = 0.42\nsamples = 10\nvalue = [7, 3]"] ;
741 -> 745 ;
746 [label="gini = 0.0\nsamples = 53\nvalue = [53, 0]"] ;
740 -> 746 ;
747 [label="gini = 0.291\nsamples = 17\nvalue = [14, 3]"] ;
739 -> 747 ;
748 [label="X[3] <= 0.615\ngini = 0.309\nsamples = 68\nvalue = [55, 13]"] ;
736 -> 748 ;
749 [label="X[1] <= 0.436\ngini = 0.13\nsamples = 43\nvalue = [40, 3]"] ;
748 -> 749 ;
750 [label="gini = 0.0\nsamples = 24\nvalue = [24, 0]"] ;
749 -> 750 ;
751 [label="gini = 0.266\nsamples = 19\nvalue = [16, 3]"] ;
749 -> 751 ;
752 [label="X[3] <= 0.625\ngini = 0.48\nsamples = 25\nvalue = [15, 10]"] ;
748 -> 752 ;
753 [label="gini = 0.444\nsamples = 12\nvalue = [4, 8]"] ;
752 -> 753 ;
754 [label="gini = 0.26\nsamples = 13\nvalue = [11, 2]"] ;
752 -> 754 ;
755 [label="X[6] <= 0.626\ngini = 0.356\nsamples = 147\nvalue = [113, 34]"] ;
733 -> 755 ;
756 [label="X[2] <= 0.611\ngini = 0.28\nsamples = 113\nvalue = [94, 19]"] ;
755 -> 756 ;
757 [label="X[5] <= 0.899\ngini = 0.476\nsamples = 23\nvalue = [14, 9]"] ;
756 -> 757 ;
758 [label="gini = 0.486\nsamples = 12\nvalue = [5, 7]"] ;
757 -> 758 ;
759 [label="gini = 0.298\nsamples = 11\nvalue = [9, 2]"] ;
757 -> 759 ;
760 [label="X[1] <= 0.518\ngini = 0.198\nsamples = 90\nvalue = [80, 10]"] ;
756 -> 760 ;
761 [label="X[2] <= 0.651\ngini = 0.101\nsamples = 56\nvalue = [53, 3]"] ;
760 -> 761 ;
762 [label="X[0] <= 0.922\ngini = 0.219\nsamples = 24\nvalue = [21, 3]"] ;
761 -> 762 ;
763 [label="gini = 0.133\nsamples = 14\nvalue = [13, 1]"] ;
762 -> 763 ;
764 [label="gini = 0.32\nsamples = 10\nvalue = [8, 2]"] ;
762 -> 764 ;
765 [label="gini = 0.0\nsamples = 32\nvalue = [32, 0]"] ;
761 -> 765 ;
766 [label="X[6] <= 0.015\ngini = 0.327\nsamples = 34\nvalue = [27, 7]"] ;
760 -> 766 ;
767 [label="gini = 0.48\nsamples = 15\nvalue = [9, 6]"] ;
766 -> 767 ;
768 [label="gini = 0.1\nsamples = 19\nvalue = [18, 1]"] ;
766 -> 768 ;
769 [label="X[5] <= 0.296\ngini = 0.493\nsamples = 34\nvalue = [19, 15]"] ;
755 -> 769 ;
770 [label="X[1] <= 0.481\ngini = 0.386\nsamples = 23\nvalue = [17, 6]"] ;
769 -> 770 ;
771 [label="gini = 0.0\nsamples = 10\nvalue = [10, 0]"] ;
770 -> 771 ;
772 [label="gini = 0.497\nsamples = 13\nvalue = [7, 6]"] ;
770 -> 772 ;
773 [label="gini = 0.298\nsamples = 11\nvalue = [2, 9]"] ;
769 -> 773 ;
774 [label="gini = 0.375\nsamples = 12\nvalue = [3, 9]"] ;
732 -> 774 ;
775 [label="X[1] <= 0.427\ngini = 0.419\nsamples = 114\nvalue = [80, 34]"] ;
723 -> 775 ;
776 [label="X[0] <= 0.765\ngini = 0.194\nsamples = 46\nvalue = [41, 5]"] ;
775 -> 776 ;
777 [label="gini = 0.463\nsamples = 11\nvalue = [7, 4]"] ;
776 -> 777 ;
778 [label="X[3] <= 0.543\ngini = 0.056\nsamples = 35\nvalue = [34, 1]"] ;
776 -> 778 ;
779 [label="gini = 0.18\nsamples = 10\nvalue = [9, 1]"] ;
778 -> 779 ;
780 [label="gini = 0.0\nsamples = 25\nvalue = [25, 0]"] ;
778 -> 780 ;
781 [label="X[1] <= 0.577\ngini = 0.489\nsamples = 68\nvalue = [39, 29]"] ;
775 -> 781 ;
782 [label="X[2] <= 0.662\ngini = 0.499\nsamples = 58\nvalue = [30, 28]"] ;
781 -> 782 ;
783 [label="X[1] <= 0.526\ngini = 0.489\nsamples = 40\nvalue = [23, 17]"] ;
782 -> 783 ;
784 [label="X[3] <= 0.6\ngini = 0.444\nsamples = 27\nvalue = [18, 9]"] ;
783 -> 784 ;
785 [label="gini = 0.32\nsamples = 15\nvalue = [12, 3]"] ;
784 -> 785 ;
786 [label="gini = 0.5\nsamples = 12\nvalue = [6, 6]"] ;
784 -> 786 ;
787 [label="gini = 0.473\nsamples = 13\nvalue = [5, 8]"] ;
783 -> 787 ;
788 [label="gini = 0.475\nsamples = 18\nvalue = [7, 11]"] ;
782 -> 788 ;
789 [label="gini = 0.18\nsamples = 10\nvalue = [9, 1]"] ;
781 -> 789 ;
790 [label="X[18] <= 0.5\ngini = 0.371\nsamples = 236\nvalue = [178, 58]"] ;
642 -> 790 ;
791 [label="X[6] <= 0.001\ngini = 0.296\nsamples = 188\nvalue = [154, 34]"] ;
790 -> 791 ;
792 [label="X[1] <= 0.472\ngini = 0.448\nsamples = 56\nvalue = [37, 19]"] ;
791 -> 792 ;
793 [label="X[2] <= 0.725\ngini = 0.219\nsamples = 32\nvalue = [28, 4]"] ;
792 -> 793 ;
794 [label="gini = 0.42\nsamples = 10\nvalue = [7, 3]"] ;
793 -> 794 ;
795 [label="X[1] <= 0.426\ngini = 0.087\nsamples = 22\nvalue = [21, 1]"] ;
793 -> 795 ;
796 [label="gini = 0.0\nsamples = 12\nvalue = [12, 0]"] ;
795 -> 796 ;
797 [label="gini = 0.18\nsamples = 10\nvalue = [9, 1]"] ;
795 -> 797 ;
798 [label="X[1] <= 0.542\ngini = 0.469\nsamples = 24\nvalue = [9, 15]"] ;
792 -> 798 ;
799 [label="gini = 0.355\nsamples = 13\nvalue = [3, 10]"] ;
798 -> 799 ;
800 [label="gini = 0.496\nsamples = 11\nvalue = [6, 5]"] ;
798 -> 800 ;
801 [label="X[0] <= 0.841\ngini = 0.201\nsamples = 132\nvalue = [117, 15]"] ;
791 -> 801 ;
802 [label="X[0] <= 0.765\ngini = 0.278\nsamples = 84\nvalue = [70, 14]"] ;
801 -> 802 ;
803 [label="X[0] <= 0.57\ngini = 0.153\nsamples = 48\nvalue = [44, 4]"] ;
802 -> 803 ;
804 [label="gini = 0.375\nsamples = 12\nvalue = [9, 3]"] ;
803 -> 804 ;
805 [label="X[0] <= 0.682\ngini = 0.054\nsamples = 36\nvalue = [35, 1]"] ;
803 -> 805 ;
806 [label="gini = 0.18\nsamples = 10\nvalue = [9, 1]"] ;
805 -> 806 ;
807 [label="gini = 0.0\nsamples = 26\nvalue = [26, 0]"] ;
805 -> 807 ;
808 [label="X[0] <= 0.806\ngini = 0.401\nsamples = 36\nvalue = [26, 10]"] ;
802 -> 808 ;
809 [label="gini = 0.494\nsamples = 18\nvalue = [10, 8]"] ;
808 -> 809 ;
810 [label="gini = 0.198\nsamples = 18\nvalue = [16, 2]"] ;
808 -> 810 ;
811 [label="X[5] <= 0.216\ngini = 0.041\nsamples = 48\nvalue = [47, 1]"] ;
801 -> 811 ;
812 [label="gini = 0.18\nsamples = 10\nvalue = [9, 1]"] ;
811 -> 812 ;
813 [label="gini = 0.0\nsamples = 38\nvalue = [38, 0]"] ;
811 -> 813 ;
814 [label="X[1] <= 0.423\ngini = 0.5\nsamples = 48\nvalue = [24, 24]"] ;
790 -> 814 ;
815 [label="gini = 0.278\nsamples = 18\nvalue = [15, 3]"] ;
814 -> 815 ;
816 [label="X[2] <= 0.736\ngini = 0.42\nsamples = 30\nvalue = [9, 21]"] ;
814 -> 816 ;
817 [label="gini = 0.492\nsamples = 16\nvalue = [7, 9]"] ;
816 -> 817 ;
818 [label="gini = 0.245\nsamples = 14\nvalue = [2, 12]"] ;
816 -> 818 ;
819 [label="X[0] <= 0.882\ngini = 0.284\nsamples = 6091\nvalue = [5045, 1046]"] ;
1 -> 819 ;
820 [label="X[1] <= 0.325\ngini = 0.226\nsamples = 4772\nvalue = [4152, 620]"] ;
819 -> 820 ;
821 [label="X[6] <= 0.009\ngini = 0.09\nsamples = 1613\nvalue = [1537, 76]"] ;
820 -> 821 ;
822 [label="X[0] <= 0.755\ngini = 0.137\nsamples = 894\nvalue = [828, 66]"] ;
821 -> 822 ;
823 [label="X[1] <= 0.297\ngini = 0.096\nsamples = 730\nvalue = [693, 37]"] ;
822 -> 823 ;
824 [label="X[2] <= 0.74\ngini = 0.06\nsamples = 552\nvalue = [535, 17]"] ;
823 -> 824 ;
825 [label="X[2] <= 0.539\ngini = 0.051\nsamples = 534\nvalue = [520, 14]"] ;
824 -> 825 ;
826 [label="X[1] <= 0.277\ngini = 0.156\nsamples = 94\nvalue = [86, 8]"] ;
825 -> 826 ;
827 [label="X[0] <= 0.628\ngini = 0.074\nsamples = 78\nvalue = [75, 3]"] ;
826 -> 827 ;
828 [label="gini = 0.0\nsamples = 58\nvalue = [58, 0]"] ;
827 -> 828 ;
829 [label="X[0] <= 0.664\ngini = 0.255\nsamples = 20\nvalue = [17, 3]"] ;
827 -> 829 ;
830 [label="gini = 0.42\nsamples = 10\nvalue = [7, 3]"] ;
829 -> 830 ;
831 [label="gini = 0.0\nsamples = 10\nvalue = [10, 0]"] ;
829 -> 831 ;
832 [label="gini = 0.43\nsamples = 16\nvalue = [11, 5]"] ;
826 -> 832 ;
833 [label="X[3] <= 0.707\ngini = 0.027\nsamples = 440\nvalue = [434, 6]"] ;
825 -> 833 ;
834 [label="X[3] <= 0.699\ngini = 0.051\nsamples = 191\nvalue = [186, 5]"] ;
833 -> 834 ;
835 [label="X[2] <= 0.655\ngini = 0.033\nsamples = 181\nvalue = [178, 3]"] ;
834 -> 835 ;
836 [label="gini = 0.0\nsamples = 121\nvalue = [121, 0]"] ;
835 -> 836 ;
837 [label="X[2] <= 0.669\ngini = 0.095\nsamples = 60\nvalue = [57, 3]"] ;
835 -> 837 ;
838 [label="X[18] <= 0.5\ngini = 0.245\nsamples = 21\nvalue = [18, 3]"] ;
837 -> 838 ;
839 [label="gini = 0.32\nsamples = 10\nvalue = [8, 2]"] ;
838 -> 839 ;
840 [label="gini = 0.165\nsamples = 11\nvalue = [10, 1]"] ;
838 -> 840 ;
841 [label="gini = 0.0\nsamples = 39\nvalue = [39, 0]"] ;
837 -> 841 ;
842 [label="gini = 0.32\nsamples = 10\nvalue = [8, 2]"] ;
834 -> 842 ;
843 [label="X[2] <= 0.582\ngini = 0.008\nsamples = 249\nvalue = [248, 1]"] ;
833 -> 843 ;
844 [label="X[2] <= 0.566\ngini = 0.064\nsamples = 30\nvalue = [29, 1]"] ;
843 -> 844 ;
845 [label="gini = 0.0\nsamples = 20\nvalue = [20, 0]"] ;
844 -> 845 ;
846 [label="gini = 0.18\nsamples = 10\nvalue = [9, 1]"] ;
844 -> 846 ;
847 [label="gini = 0.0\nsamples = 219\nvalue = [219, 0]"] ;
843 -> 847 ;
848 [label="gini = 0.278\nsamples = 18\nvalue = [15, 3]"] ;
824 -> 848 ;
849 [label="X[2] <= 0.495\ngini = 0.199\nsamples = 178\nvalue = [158, 20]"] ;
823 -> 849 ;
850 [label="gini = 0.432\nsamples = 19\nvalue = [13, 6]"] ;
849 -> 850 ;
851 [label="X[5] <= 0.993\ngini = 0.161\nsamples = 159\nvalue = [145, 14]"] ;
849 -> 851 ;
852 [label="X[2] <= 0.613\ngini = 0.339\nsamples = 37\nvalue = [29, 8]"] ;
851 -> 852 ;
853 [label="gini = 0.0\nsamples = 16\nvalue = [16, 0]"] ;
852 -> 853 ;
854 [label="X[3] <= 0.694\ngini = 0.472\nsamples = 21\nvalue = [13, 8]"] ;
852 -> 854 ;
855 [label="gini = 0.5\nsamples = 10\nvalue = [5, 5]"] ;
854 -> 855 ;
856 [label="gini = 0.397\nsamples = 11\nvalue = [8, 3]"] ;
854 -> 856 ;
857 [label="X[1] <= 0.302\ngini = 0.094\nsamples = 122\nvalue = [116, 6]"] ;
851 -> 857 ;
858 [label="gini = 0.42\nsamples = 10\nvalue = [7, 3]"] ;
857 -> 858 ;
859 [label="X[1] <= 0.318\ngini = 0.052\nsamples = 112\nvalue = [109, 3]"] ;
857 -> 859 ;
860 [label="X[2] <= 0.601\ngini = 0.097\nsamples = 59\nvalue = [56, 3]"] ;
859 -> 860 ;
861 [label="gini = 0.0\nsamples = 24\nvalue = [24, 0]"] ;
860 -> 861 ;
862 [label="X[0] <= 0.635\ngini = 0.157\nsamples = 35\nvalue = [32, 3]"] ;
860 -> 862 ;
863 [label="gini = 0.32\nsamples = 10\nvalue = [8, 2]"] ;
862 -> 863 ;
864 [label="X[2] <= 0.664\ngini = 0.077\nsamples = 25\nvalue = [24, 1]"] ;
862 -> 864 ;
865 [label="gini = 0.18\nsamples = 10\nvalue = [9, 1]"] ;
864 -> 865 ;
866 [label="gini = 0.0\nsamples = 15\nvalue = [15, 0]"] ;
864 -> 866 ;
867 [label="gini = 0.0\nsamples = 53\nvalue = [53, 0]"] ;
859 -> 867 ;
868 [label="X[5] <= 0.997\ngini = 0.291\nsamples = 164\nvalue = [135, 29]"] ;
822 -> 868 ;
869 [label="X[3] <= 0.763\ngini = 0.061\nsamples = 63\nvalue = [61, 2]"] ;
868 -> 869 ;
870 [label="gini = 0.0\nsamples = 47\nvalue = [47, 0]"] ;
869 -> 870 ;
871 [label="gini = 0.219\nsamples = 16\nvalue = [14, 2]"] ;
869 -> 871 ;
872 [label="X[2] <= 0.72\ngini = 0.392\nsamples = 101\nvalue = [74, 27]"] ;
868 -> 872 ;
873 [label="X[0] <= 0.818\ngini = 0.343\nsamples = 91\nvalue = [71, 20]"] ;
872 -> 873 ;
874 [label="X[3] <= 0.711\ngini = 0.449\nsamples = 47\nvalue = [31, 16]"] ;
873 -> 874 ;
875 [label="X[2] <= 0.595\ngini = 0.5\nsamples = 22\nvalue = [11, 11]"] ;
874 -> 875 ;
876 [label="gini = 0.444\nsamples = 12\nvalue = [8, 4]"] ;
875 -> 876 ;
877 [label="gini = 0.42\nsamples = 10\nvalue = [3, 7]"] ;
875 -> 877 ;
878 [label="X[18] <= 0.5\ngini = 0.32\nsamples = 25\nvalue = [20, 5]"] ;
874 -> 878 ;
879 [label="gini = 0.165\nsamples = 11\nvalue = [10, 1]"] ;
878 -> 879 ;
880 [label="gini = 0.408\nsamples = 14\nvalue = [10, 4]"] ;
878 -> 880 ;
881 [label="X[2] <= 0.695\ngini = 0.165\nsamples = 44\nvalue = [40, 4]"] ;
873 -> 881 ;
882 [label="X[0] <= 0.851\ngini = 0.057\nsamples = 34\nvalue = [33, 1]"] ;
881 -> 882 ;
883 [label="gini = 0.0\nsamples = 24\nvalue = [24, 0]"] ;
882 -> 883 ;
884 [label="gini = 0.18\nsamples = 10\nvalue = [9, 1]"] ;
882 -> 884 ;
885 [label="gini = 0.42\nsamples = 10\nvalue = [7, 3]"] ;
881 -> 885 ;
886 [label="gini = 0.42\nsamples = 10\nvalue = [3, 7]"] ;
872 -> 886 ;
887 [label="X[3] <= 0.788\ngini = 0.027\nsamples = 719\nvalue = [709, 10]"] ;
821 -> 887 ;
888 [label="X[0] <= 0.646\ngini = 0.012\nsamples = 644\nvalue = [640, 4]"] ;
887 -> 888 ;
889 [label="gini = 0.0\nsamples = 338\nvalue = [338, 0]"] ;
888 -> 889 ;
890 [label="X[0] <= 0.656\ngini = 0.026\nsamples = 306\nvalue = [302, 4]"] ;
888 -> 890 ;
891 [label="gini = 0.32\nsamples = 10\nvalue = [8, 2]"] ;
890 -> 891 ;
892 [label="X[3] <= 0.652\ngini = 0.013\nsamples = 296\nvalue = [294, 2]"] ;
890 -> 892 ;
893 [label="X[0] <= 0.747\ngini = 0.089\nsamples = 43\nvalue = [41, 2]"] ;
892 -> 893 ;
894 [label="gini = 0.26\nsamples = 13\nvalue = [11, 2]"] ;
893 -> 894 ;
895 [label="gini = 0.0\nsamples = 30\nvalue = [30, 0]"] ;
893 -> 895 ;
896 [label="gini = 0.0\nsamples = 253\nvalue = [253, 0]"] ;
892 -> 896 ;
897 [label="X[0] <= 0.78\ngini = 0.147\nsamples = 75\nvalue = [69, 6]"] ;
887 -> 897 ;
898 [label="X[3] <= 0.81\ngini = 0.065\nsamples = 59\nvalue = [57, 2]"] ;
897 -> 898 ;
899 [label="X[1] <= 0.259\ngini = 0.159\nsamples = 23\nvalue = [21, 2]"] ;
898 -> 899 ;
900 [label="gini = 0.26\nsamples = 13\nvalue = [11, 2]"] ;
899 -> 900 ;
901 [label="gini = 0.0\nsamples = 10\nvalue = [10, 0]"] ;
899 -> 901 ;
902 [label="gini = 0.0\nsamples = 36\nvalue = [36, 0]"] ;
898 -> 902 ;
903 [label="gini = 0.375\nsamples = 16\nvalue = [12, 4]"] ;
897 -> 903 ;
904 [label="X[2] <= 0.655\ngini = 0.285\nsamples = 3159\nvalue = [2615, 544]"] ;
820 -> 904 ;
905 [label="X[3] <= 0.992\ngini = 0.209\nsamples = 1654\nvalue = [1458, 196]"] ;
904 -> 905 ;
906 [label="X[5] <= 0.979\ngini = 0.203\nsamples = 1643\nvalue = [1455, 188]"] ;
905 -> 906 ;
907 [label="X[2] <= 0.607\ngini = 0.144\nsamples = 988\nvalue = [911, 77]"] ;
906 -> 907 ;
908 [label="X[5] <= 0.001\ngini = 0.085\nsamples = 583\nvalue = [557, 26]"] ;
907 -> 908 ;
909 [label="X[1] <= 0.431\ngini = 0.298\nsamples = 22\nvalue = [18, 4]"] ;
908 -> 909 ;
910 [label="gini = 0.153\nsamples = 12\nvalue = [11, 1]"] ;
909 -> 910 ;
911 [label="gini = 0.42\nsamples = 10\nvalue = [7, 3]"] ;
909 -> 911 ;
912 [label="X[3] <= 0.674\ngini = 0.075\nsamples = 561\nvalue = [539, 22]"] ;
908 -> 912 ;
913 [label="X[2] <= 0.541\ngini = 0.129\nsamples = 217\nvalue = [202, 15]"] ;
912 -> 913 ;
914 [label="X[0] <= 0.846\ngini = 0.024\nsamples = 83\nvalue = [82, 1]"] ;
913 -> 914 ;
915 [label="gini = 0.0\nsamples = 73\nvalue = [73, 0]"] ;
914 -> 915 ;
916 [label="gini = 0.18\nsamples = 10\nvalue = [9, 1]"] ;
914 -> 916 ;
917 [label="X[5] <= 0.05\ngini = 0.187\nsamples = 134\nvalue = [120, 14]"] ;
913 -> 917 ;
918 [label="gini = 0.0\nsamples = 34\nvalue = [34, 0]"] ;
917 -> 918 ;
919 [label="X[2] <= 0.592\ngini = 0.241\nsamples = 100\nvalue = [86, 14]"] ;
917 -> 919 ;
920 [label="X[6] <= 0.326\ngini = 0.308\nsamples = 63\nvalue = [51, 12]"] ;
919 -> 920 ;
921 [label="X[1] <= 0.425\ngini = 0.17\nsamples = 32\nvalue = [29, 3]"] ;
920 -> 921 ;
922 [label="gini = 0.0\nsamples = 14\nvalue = [14, 0]"] ;
921 -> 922 ;
923 [label="gini = 0.278\nsamples = 18\nvalue = [15, 3]"] ;
921 -> 923 ;
924 [label="X[0] <= 0.718\ngini = 0.412\nsamples = 31\nvalue = [22, 9]"] ;
920 -> 924 ;
925 [label="gini = 0.497\nsamples = 13\nvalue = [7, 6]"] ;
924 -> 925 ;
926 [label="gini = 0.278\nsamples = 18\nvalue = [15, 3]"] ;
924 -> 926 ;
927 [label="X[5] <= 0.688\ngini = 0.102\nsamples = 37\nvalue = [35, 2]"] ;
919 -> 927 ;
928 [label="gini = 0.0\nsamples = 19\nvalue = [19, 0]"] ;
927 -> 928 ;
929 [label="gini = 0.198\nsamples = 18\nvalue = [16, 2]"] ;
927 -> 929 ;
930 [label="X[2] <= 0.575\ngini = 0.04\nsamples = 344\nvalue = [337, 7]"] ;
912 -> 930 ;
931 [label="X[2] <= 0.449\ngini = 0.017\nsamples = 236\nvalue = [234, 2]"] ;
930 -> 931 ;
932 [label="gini = 0.133\nsamples = 14\nvalue = [13, 1]"] ;
931 -> 932 ;
933 [label="X[2] <= 0.512\ngini = 0.009\nsamples = 222\nvalue = [221, 1]"] ;
931 -> 933 ;
934 [label="X[0] <= 0.723\ngini = 0.041\nsamples = 48\nvalue = [47, 1]"] ;
933 -> 934 ;
935 [label="gini = 0.0\nsamples = 38\nvalue = [38, 0]"] ;
934 -> 935 ;
936 [label="gini = 0.18\nsamples = 10\nvalue = [9, 1]"] ;
934 -> 936 ;
937 [label="gini = 0.0\nsamples = 174\nvalue = [174, 0]"] ;
933 -> 937 ;
938 [label="X[0] <= 0.792\ngini = 0.088\nsamples = 108\nvalue = [103, 5]"] ;
930 -> 938 ;
939 [label="X[3] <= 0.738\ngini = 0.155\nsamples = 59\nvalue = [54, 5]"] ;
938 -> 939 ;
940 [label="X[5] <= 0.905\ngini = 0.05\nsamples = 39\nvalue = [38, 1]"] ;
939 -> 940 ;
941 [label="gini = 0.0\nsamples = 29\nvalue = [29, 0]"] ;
940 -> 941 ;
942 [label="gini = 0.18\nsamples = 10\nvalue = [9, 1]"] ;
940 -> 942 ;
943 [label="X[6] <= 0.083\ngini = 0.32\nsamples = 20\nvalue = [16, 4]"] ;
939 -> 943 ;
944 [label="gini = 0.0\nsamples = 10\nvalue = [10, 0]"] ;
943 -> 944 ;
945 [label="gini = 0.48\nsamples = 10\nvalue = [6, 4]"] ;
943 -> 945 ;
946 [label="gini = 0.0\nsamples = 49\nvalue = [49, 0]"] ;
938 -> 946 ;
947 [label="X[10] <= 0.5\ngini = 0.22\nsamples = 405\nvalue = [354, 51]"] ;
907 -> 947 ;
948 [label="X[2] <= 0.628\ngini = 0.204\nsamples = 390\nvalue = [345, 45]"] ;
947 -> 948 ;
949 [label="X[15] <= 0.5\ngini = 0.286\nsamples = 162\nvalue = [134, 28]"] ;
948 -> 949 ;
950 [label="X[2] <= 0.612\ngini = 0.225\nsamples = 147\nvalue = [128, 19]"] ;
949 -> 950 ;
951 [label="X[3] <= 0.681\ngini = 0.408\nsamples = 28\nvalue = [20, 8]"] ;
950 -> 951 ;
952 [label="gini = 0.165\nsamples = 11\nvalue = [10, 1]"] ;
951 -> 952 ;
953 [label="gini = 0.484\nsamples = 17\nvalue = [10, 7]"] ;
951 -> 953 ;
954 [label="X[2] <= 0.625\ngini = 0.168\nsamples = 119\nvalue = [108, 11]"] ;
950 -> 954 ;
955 [label="X[3] <= 0.673\ngini = 0.124\nsamples = 105\nvalue = [98, 7]"] ;
954 -> 955 ;
956 [label="X[3] <= 0.661\ngini = 0.257\nsamples = 33\nvalue = [28, 5]"] ;
955 -> 956 ;
957 [label="X[6] <= 0.467\ngini = 0.095\nsamples = 20\nvalue = [19, 1]"] ;
956 -> 957 ;
958 [label="gini = 0.0\nsamples = 10\nvalue = [10, 0]"] ;
957 -> 958 ;
959 [label="gini = 0.18\nsamples = 10\nvalue = [9, 1]"] ;
957 -> 959 ;
960 [label="gini = 0.426\nsamples = 13\nvalue = [9, 4]"] ;
956 -> 960 ;
961 [label="X[6] <= 0.827\ngini = 0.054\nsamples = 72\nvalue = [70, 2]"] ;
955 -> 961 ;
962 [label="gini = 0.0\nsamples = 56\nvalue = [56, 0]"] ;
961 -> 962 ;
963 [label="gini = 0.219\nsamples = 16\nvalue = [14, 2]"] ;
961 -> 963 ;
964 [label="gini = 0.408\nsamples = 14\nvalue = [10, 4]"] ;
954 -> 964 ;
965 [label="gini = 0.48\nsamples = 15\nvalue = [6, 9]"] ;
949 -> 965 ;
966 [label="X[3] <= 0.656\ngini = 0.138\nsamples = 228\nvalue = [211, 17]"] ;
948 -> 966 ;
967 [label="X[4] <= 0.005\ngini = 0.311\nsamples = 26\nvalue = [21, 5]"] ;
966 -> 967 ;
968 [label="gini = 0.444\nsamples = 15\nvalue = [10, 5]"] ;
967 -> 968 ;
969 [label="gini = 0.0\nsamples = 11\nvalue = [11, 0]"] ;
967 -> 969 ;
970 [label="X[12] <= 0.5\ngini = 0.112\nsamples = 202\nvalue = [190, 12]"] ;
966 -> 970 ;
971 [label="X[4] <= 0.003\ngini = 0.09\nsamples = 190\nvalue = [181, 9]"] ;
970 -> 971 ;
972 [label="X[5] <= 0.06\ngini = 0.054\nsamples = 144\nvalue = [140, 4]"] ;
971 -> 972 ;
973 [label="X[3] <= 0.716\ngini = 0.18\nsamples = 20\nvalue = [18, 2]"] ;
972 -> 973 ;
974 [label="gini = 0.32\nsamples = 10\nvalue = [8, 2]"] ;
973 -> 974 ;
975 [label="gini = 0.0\nsamples = 10\nvalue = [10, 0]"] ;
973 -> 975 ;
976 [label="X[6] <= 0.038\ngini = 0.032\nsamples = 124\nvalue = [122, 2]"] ;
972 -> 976 ;
977 [label="gini = 0.153\nsamples = 12\nvalue = [11, 1]"] ;
976 -> 977 ;
978 [label="X[1] <= 0.35\ngini = 0.018\nsamples = 112\nvalue = [111, 1]"] ;
976 -> 978 ;
979 [label="gini = 0.153\nsamples = 12\nvalue = [11, 1]"] ;
978 -> 979 ;
980 [label="gini = 0.0\nsamples = 100\nvalue = [100, 0]"] ;
978 -> 980 ;
981 [label="X[4] <= 0.009\ngini = 0.194\nsamples = 46\nvalue = [41, 5]"] ;
971 -> 981 ;
982 [label="gini = 0.496\nsamples = 11\nvalue = [6, 5]"] ;
981 -> 982 ;
983 [label="gini = 0.0\nsamples = 35\nvalue = [35, 0]"] ;
981 -> 983 ;
984 [label="gini = 0.375\nsamples = 12\nvalue = [9, 3]"] ;
970 -> 984 ;
985 [label="gini = 0.48\nsamples = 15\nvalue = [9, 6]"] ;
947 -> 985 ;
986 [label="X[3] <= 0.636\ngini = 0.281\nsamples = 655\nvalue = [544, 111]"] ;
906 -> 986 ;
987 [label="gini = 0.48\nsamples = 15\nvalue = [6, 9]"] ;
986 -> 987 ;
988 [label="X[0] <= 0.67\ngini = 0.268\nsamples = 640\nvalue = [538, 102]"] ;
986 -> 988 ;
989 [label="X[1] <= 0.423\ngini = 0.134\nsamples = 194\nvalue = [180, 14]"] ;
988 -> 989 ;
990 [label="X[1] <= 0.344\ngini = 0.085\nsamples = 157\nvalue = [150, 7]"] ;
989 -> 990 ;
991 [label="X[3] <= 0.761\ngini = 0.219\nsamples = 40\nvalue = [35, 5]"] ;
990 -> 991 ;
992 [label="X[0] <= 0.605\ngini = 0.124\nsamples = 30\nvalue = [28, 2]"] ;
991 -> 992 ;
993 [label="gini = 0.0\nsamples = 20\nvalue = [20, 0]"] ;
992 -> 993 ;
994 [label="gini = 0.32\nsamples = 10\nvalue = [8, 2]"] ;
992 -> 994 ;
995 [label="gini = 0.42\nsamples = 10\nvalue = [7, 3]"] ;
991 -> 995 ;
996 [label="X[2] <= 0.566\ngini = 0.034\nsamples = 117\nvalue = [115, 2]"] ;
990 -> 996 ;
997 [label="gini = 0.0\nsamples = 65\nvalue = [65, 0]"] ;
996 -> 997 ;
998 [label="X[2] <= 0.587\ngini = 0.074\nsamples = 52\nvalue = [50, 2]"] ;
996 -> 998 ;
999 [label="gini = 0.208\nsamples = 17\nvalue = [15, 2]"] ;
998 -> 999 ;
1000 [label="gini = 0.0\nsamples = 35\nvalue = [35, 0]"] ;
998 -> 1000 ;
1001 [label="X[3] <= 0.743\ngini = 0.307\nsamples = 37\nvalue = [30, 7]"] ;
989 -> 1001 ;
1002 [label="X[3] <= 0.661\ngini = 0.198\nsamples = 27\nvalue = [24, 3]"] ;
1001 -> 1002 ;
1003 [label="gini = 0.375\nsamples = 12\nvalue = [9, 3]"] ;
1002 -> 1003 ;
1004 [label="gini = 0.0\nsamples = 15\nvalue = [15, 0]"] ;
1002 -> 1004 ;
1005 [label="gini = 0.48\nsamples = 10\nvalue = [6, 4]"] ;
1001 -> 1005 ;
1006 [label="X[0] <= 0.855\ngini = 0.317\nsamples = 446\nvalue = [358, 88]"] ;
988 -> 1006 ;
1007 [label="X[0] <= 0.827\ngini = 0.344\nsamples = 385\nvalue = [300, 85]"] ;
1006 -> 1007 ;
1008 [label="X[0] <= 0.688\ngini = 0.301\nsamples = 325\nvalue = [265, 60]"] ;
1007 -> 1008 ;
1009 [label="gini = 0.498\nsamples = 15\nvalue = [8, 7]"] ;
1008 -> 1009 ;
1010 [label="X[3] <= 0.844\ngini = 0.283\nsamples = 310\nvalue = [257, 53]"] ;
1008 -> 1010 ;
1011 [label="X[3] <= 0.77\ngini = 0.263\nsamples = 289\nvalue = [244, 45]"] ;
1010 -> 1011 ;
1012 [label="X[2] <= 0.592\ngini = 0.312\nsamples = 207\nvalue = [167, 40]"] ;
1011 -> 1012 ;
1013 [label="X[5] <= 0.995\ngini = 0.229\nsamples = 106\nvalue = [92, 14]"] ;
1012 -> 1013 ;
1014 [label="gini = 0.0\nsamples = 31\nvalue = [31, 0]"] ;
1013 -> 1014 ;
1015 [label="X[0] <= 0.768\ngini = 0.304\nsamples = 75\nvalue = [61, 14]"] ;
1013 -> 1015 ;
1016 [label="X[3] <= 0.711\ngini = 0.408\nsamples = 42\nvalue = [30, 12]"] ;
1015 -> 1016 ;
1017 [label="X[3] <= 0.649\ngini = 0.305\nsamples = 32\nvalue = [26, 6]"] ;
1016 -> 1017 ;
1018 [label="gini = 0.5\nsamples = 10\nvalue = [5, 5]"] ;
1017 -> 1018 ;
1019 [label="X[2] <= 0.524\ngini = 0.087\nsamples = 22\nvalue = [21, 1]"] ;
1017 -> 1019 ;
1020 [label="gini = 0.18\nsamples = 10\nvalue = [9, 1]"] ;
1019 -> 1020 ;
1021 [label="gini = 0.0\nsamples = 12\nvalue = [12, 0]"] ;
1019 -> 1021 ;
1022 [label="gini = 0.48\nsamples = 10\nvalue = [4, 6]"] ;
1016 -> 1022 ;
1023 [label="X[2] <= 0.532\ngini = 0.114\nsamples = 33\nvalue = [31, 2]"] ;
1015 -> 1023 ;
1024 [label="gini = 0.298\nsamples = 11\nvalue = [9, 2]"] ;
1023 -> 1024 ;
1025 [label="gini = 0.0\nsamples = 22\nvalue = [22, 0]"] ;
1023 -> 1025 ;
1026 [label="X[1] <= 0.369\ngini = 0.382\nsamples = 101\nvalue = [75, 26]"] ;
1012 -> 1026 ;
1027 [label="gini = 0.0\nsamples = 23\nvalue = [23, 0]"] ;
1026 -> 1027 ;
1028 [label="X[2] <= 0.608\ngini = 0.444\nsamples = 78\nvalue = [52, 26]"] ;
1026 -> 1028 ;
1029 [label="gini = 0.444\nsamples = 15\nvalue = [5, 10]"] ;
1028 -> 1029 ;
1030 [label="X[1] <= 0.405\ngini = 0.379\nsamples = 63\nvalue = [47, 16]"] ;
1028 -> 1030 ;
1031 [label="gini = 0.5\nsamples = 16\nvalue = [8, 8]"] ;
1030 -> 1031 ;
1032 [label="X[0] <= 0.743\ngini = 0.282\nsamples = 47\nvalue = [39, 8]"] ;
1030 -> 1032 ;
1033 [label="gini = 0.473\nsamples = 13\nvalue = [8, 5]"] ;
1032 -> 1033 ;
1034 [label="X[1] <= 0.49\ngini = 0.161\nsamples = 34\nvalue = [31, 3]"] ;
1032 -> 1034 ;
1035 [label="gini = 0.0\nsamples = 18\nvalue = [18, 0]"] ;
1034 -> 1035 ;
1036 [label="gini = 0.305\nsamples = 16\nvalue = [13, 3]"] ;
1034 -> 1036 ;
1037 [label="X[1] <= 0.52\ngini = 0.115\nsamples = 82\nvalue = [77, 5]"] ;
1011 -> 1037 ;
1038 [label="X[0] <= 0.808\ngini = 0.028\nsamples = 71\nvalue = [70, 1]"] ;
1037 -> 1038 ;
1039 [label="gini = 0.0\nsamples = 61\nvalue = [61, 0]"] ;
1038 -> 1039 ;
1040 [label="gini = 0.18\nsamples = 10\nvalue = [9, 1]"] ;
1038 -> 1040 ;
1041 [label="gini = 0.463\nsamples = 11\nvalue = [7, 4]"] ;
1037 -> 1041 ;
1042 [label="X[3] <= 0.942\ngini = 0.472\nsamples = 21\nvalue = [13, 8]"] ;
1010 -> 1042 ;
1043 [label="gini = 0.463\nsamples = 11\nvalue = [4, 7]"] ;
1042 -> 1043 ;
1044 [label="gini = 0.18\nsamples = 10\nvalue = [9, 1]"] ;
1042 -> 1044 ;
1045 [label="X[1] <= 0.367\ngini = 0.486\nsamples = 60\nvalue = [35, 25]"] ;
1007 -> 1045 ;
1046 [label="gini = 0.32\nsamples = 10\nvalue = [2, 8]"] ;
1045 -> 1046 ;
1047 [label="X[3] <= 0.747\ngini = 0.449\nsamples = 50\nvalue = [33, 17]"] ;
1045 -> 1047 ;
1048 [label="X[18] <= 0.5\ngini = 0.49\nsamples = 35\nvalue = [20, 15]"] ;
1047 -> 1048 ;
1049 [label="X[5] <= 0.997\ngini = 0.413\nsamples = 24\nvalue = [17, 7]"] ;
1048 -> 1049 ;
1050 [label="gini = 0.5\nsamples = 12\nvalue = [6, 6]"] ;
1049 -> 1050 ;
1051 [label="gini = 0.153\nsamples = 12\nvalue = [11, 1]"] ;
1049 -> 1051 ;
1052 [label="gini = 0.397\nsamples = 11\nvalue = [3, 8]"] ;
1048 -> 1052 ;
1053 [label="gini = 0.231\nsamples = 15\nvalue = [13, 2]"] ;
1047 -> 1053 ;
1054 [label="X[1] <= 0.366\ngini = 0.094\nsamples = 61\nvalue = [58, 3]"] ;
1006 -> 1054 ;
1055 [label="gini = 0.298\nsamples = 11\nvalue = [9, 2]"] ;
1054 -> 1055 ;
1056 [label="X[0] <= 0.876\ngini = 0.039\nsamples = 50\nvalue = [49, 1]"] ;
1054 -> 1056 ;
1057 [label="gini = 0.0\nsamples = 38\nvalue = [38, 0]"] ;
1056 -> 1057 ;
1058 [label="gini = 0.153\nsamples = 12\nvalue = [11, 1]"] ;
1056 -> 1058 ;
1059 [label="gini = 0.397\nsamples = 11\nvalue = [3, 8]"] ;
905 -> 1059 ;
1060 [label="X[0] <= 0.879\ngini = 0.356\nsamples = 1505\nvalue = [1157, 348]"] ;
904 -> 1060 ;
1061 [label="X[0] <= 0.777\ngini = 0.366\nsamples = 1442\nvalue = [1094, 348]"] ;
1060 -> 1061 ;
1062 [label="X[1] <= 0.459\ngini = 0.312\nsamples = 733\nvalue = [591, 142]"] ;
1061 -> 1062 ;
1063 [label="X[3] <= 0.946\ngini = 0.245\nsamples = 468\nvalue = [401, 67]"] ;
1062 -> 1063 ;
1064 [label="X[2] <= 0.656\ngini = 0.229\nsamples = 454\nvalue = [394, 60]"] ;
1063 -> 1064 ;
1065 [label="gini = 0.5\nsamples = 12\nvalue = [6, 6]"] ;
1064 -> 1065 ;
1066 [label="X[18] <= 0.5\ngini = 0.214\nsamples = 442\nvalue = [388, 54]"] ;
1064 -> 1066 ;
1067 [label="X[3] <= 0.781\ngini = 0.185\nsamples = 358\nvalue = [321, 37]"] ;
1066 -> 1067 ;
1068 [label="X[6] <= 0.163\ngini = 0.25\nsamples = 225\nvalue = [192, 33]"] ;
1067 -> 1068 ;
1069 [label="X[3] <= 0.745\ngini = 0.347\nsamples = 121\nvalue = [94, 27]"] ;
1068 -> 1069 ;
1070 [label="X[0] <= 0.589\ngini = 0.271\nsamples = 93\nvalue = [78, 15]"] ;
1069 -> 1070 ;
1071 [label="gini = 0.473\nsamples = 13\nvalue = [8, 5]"] ;
1070 -> 1071 ;
1072 [label="X[5] <= 0.997\ngini = 0.219\nsamples = 80\nvalue = [70, 10]"] ;
1070 -> 1072 ;
1073 [label="X[5] <= 0.981\ngini = 0.295\nsamples = 50\nvalue = [41, 9]"] ;
1072 -> 1073 ;
1074 [label="X[5] <= 0.269\ngini = 0.111\nsamples = 34\nvalue = [32, 2]"] ;
1073 -> 1074 ;
1075 [label="gini = 0.32\nsamples = 10\nvalue = [8, 2]"] ;
1074 -> 1075 ;
1076 [label="gini = 0.0\nsamples = 24\nvalue = [24, 0]"] ;
1074 -> 1076 ;
1077 [label="gini = 0.492\nsamples = 16\nvalue = [9, 7]"] ;
1073 -> 1077 ;
1078 [label="X[2] <= 0.668\ngini = 0.064\nsamples = 30\nvalue = [29, 1]"] ;
1072 -> 1078 ;
1079 [label="gini = 0.18\nsamples = 10\nvalue = [9, 1]"] ;
1078 -> 1079 ;
1080 [label="gini = 0.0\nsamples = 20\nvalue = [20, 0]"] ;
1078 -> 1080 ;
1081 [label="X[3] <= 0.755\ngini = 0.49\nsamples = 28\nvalue = [16, 12]"] ;
1069 -> 1081 ;
1082 [label="gini = 0.397\nsamples = 11\nvalue = [3, 8]"] ;
1081 -> 1082 ;
1083 [label="gini = 0.36\nsamples = 17\nvalue = [13, 4]"] ;
1081 -> 1083 ;
1084 [label="X[6] <= 0.574\ngini = 0.109\nsamples = 104\nvalue = [98, 6]"] ;
1068 -> 1084 ;
1085 [label="gini = 0.0\nsamples = 56\nvalue = [56, 0]"] ;
1084 -> 1085 ;
1086 [label="X[6] <= 0.72\ngini = 0.219\nsamples = 48\nvalue = [42, 6]"] ;
1084 -> 1086 ;
1087 [label="gini = 0.444\nsamples = 12\nvalue = [8, 4]"] ;
1086 -> 1087 ;
1088 [label="X[1] <= 0.378\ngini = 0.105\nsamples = 36\nvalue = [34, 2]"] ;
1086 -> 1088 ;
1089 [label="gini = 0.231\nsamples = 15\nvalue = [13, 2]"] ;
1088 -> 1089 ;
1090 [label="gini = 0.0\nsamples = 21\nvalue = [21, 0]"] ;
1088 -> 1090 ;
1091 [label="X[5] <= 0.172\ngini = 0.058\nsamples = 133\nvalue = [129, 4]"] ;
1067 -> 1091 ;
1092 [label="X[2] <= 0.715\ngini = 0.245\nsamples = 21\nvalue = [18, 3]"] ;
1091 -> 1092 ;
1093 [label="gini = 0.42\nsamples = 10\nvalue = [7, 3]"] ;
1092 -> 1093 ;
1094 [label="gini = 0.0\nsamples = 11\nvalue = [11, 0]"] ;
1092 -> 1094 ;
1095 [label="X[1] <= 0.337\ngini = 0.018\nsamples = 112\nvalue = [111, 1]"] ;
1091 -> 1095 ;
1096 [label="gini = 0.1\nsamples = 19\nvalue = [18, 1]"] ;
1095 -> 1096 ;
1097 [label="gini = 0.0\nsamples = 93\nvalue = [93, 0]"] ;
1095 -> 1097 ;
1098 [label="X[2] <= 0.724\ngini = 0.323\nsamples = 84\nvalue = [67, 17]"] ;
1066 -> 1098 ;
1099 [label="X[3] <= 0.701\ngini = 0.198\nsamples = 63\nvalue = [56, 7]"] ;
1098 -> 1099 ;
1100 [label="gini = 0.0\nsamples = 22\nvalue = [22, 0]"] ;
1099 -> 1100 ;
1101 [label="X[2] <= 0.7\ngini = 0.283\nsamples = 41\nvalue = [34, 7]"] ;
1099 -> 1101 ;
1102 [label="X[0] <= 0.669\ngini = 0.191\nsamples = 28\nvalue = [25, 3]"] ;
1101 -> 1102 ;
1103 [label="gini = 0.375\nsamples = 12\nvalue = [9, 3]"] ;
1102 -> 1103 ;
1104 [label="gini = 0.0\nsamples = 16\nvalue = [16, 0]"] ;
1102 -> 1104 ;
1105 [label="gini = 0.426\nsamples = 13\nvalue = [9, 4]"] ;
1101 -> 1105 ;
1106 [label="X[0] <= 0.657\ngini = 0.499\nsamples = 21\nvalue = [11, 10]"] ;
1098 -> 1106 ;
1107 [label="gini = 0.42\nsamples = 10\nvalue = [7, 3]"] ;
1106 -> 1107 ;
1108 [label="gini = 0.463\nsamples = 11\nvalue = [4, 7]"] ;
1106 -> 1108 ;
1109 [label="gini = 0.5\nsamples = 14\nvalue = [7, 7]"] ;
1063 -> 1109 ;
1110 [label="X[3] <= 0.648\ngini = 0.406\nsamples = 265\nvalue = [190, 75]"] ;
1062 -> 1110 ;
1111 [label="X[2] <= 0.69\ngini = 0.486\nsamples = 24\nvalue = [10, 14]"] ;
1110 -> 1111 ;
1112 [label="gini = 0.375\nsamples = 12\nvalue = [3, 9]"] ;
1111 -> 1112 ;
1113 [label="gini = 0.486\nsamples = 12\nvalue = [7, 5]"] ;
1111 -> 1113 ;
1114 [label="X[6] <= 0.113\ngini = 0.378\nsamples = 241\nvalue = [180, 61]"] ;
1110 -> 1114 ;
1115 [label="X[2] <= 0.704\ngini = 0.444\nsamples = 138\nvalue = [92, 46]"] ;
1114 -> 1115 ;
1116 [label="X[0] <= 0.648\ngini = 0.308\nsamples = 79\nvalue = [64, 15]"] ;
1115 -> 1116 ;
1117 [label="gini = 0.0\nsamples = 19\nvalue = [19, 0]"] ;
1116 -> 1117 ;
1118 [label="X[6] <= 0.001\ngini = 0.375\nsamples = 60\nvalue = [45, 15]"] ;
1116 -> 1118 ;
1119 [label="X[3] <= 0.793\ngini = 0.229\nsamples = 38\nvalue = [33, 5]"] ;
1118 -> 1119 ;
1120 [label="X[0] <= 0.701\ngini = 0.137\nsamples = 27\nvalue = [25, 2]"] ;
1119 -> 1120 ;
1121 [label="gini = 0.32\nsamples = 10\nvalue = [8, 2]"] ;
1120 -> 1121 ;
1122 [label="gini = 0.0\nsamples = 17\nvalue = [17, 0]"] ;
1120 -> 1122 ;
1123 [label="gini = 0.397\nsamples = 11\nvalue = [8, 3]"] ;
1119 -> 1123 ;
1124 [label="X[0] <= 0.744\ngini = 0.496\nsamples = 22\nvalue = [12, 10]"] ;
1118 -> 1124 ;
1125 [label="gini = 0.444\nsamples = 12\nvalue = [4, 8]"] ;
1124 -> 1125 ;
1126 [label="gini = 0.32\nsamples = 10\nvalue = [8, 2]"] ;
1124 -> 1126 ;
1127 [label="X[1] <= 0.548\ngini = 0.499\nsamples = 59\nvalue = [28, 31]"] ;
1115 -> 1127 ;
1128 [label="X[3] <= 0.71\ngini = 0.485\nsamples = 41\nvalue = [24, 17]"] ;
1127 -> 1128 ;
1129 [label="gini = 0.337\nsamples = 14\nvalue = [11, 3]"] ;
1128 -> 1129 ;
1130 [label="X[2] <= 0.725\ngini = 0.499\nsamples = 27\nvalue = [13, 14]"] ;
1128 -> 1130 ;
1131 [label="gini = 0.375\nsamples = 12\nvalue = [3, 9]"] ;
1130 -> 1131 ;
1132 [label="gini = 0.444\nsamples = 15\nvalue = [10, 5]"] ;
1130 -> 1132 ;
1133 [label="gini = 0.346\nsamples = 18\nvalue = [4, 14]"] ;
1127 -> 1133 ;
1134 [label="X[0] <= 0.724\ngini = 0.249\nsamples = 103\nvalue = [88, 15]"] ;
1114 -> 1134 ;
1135 [label="X[0] <= 0.615\ngini = 0.062\nsamples = 62\nvalue = [60, 2]"] ;
1134 -> 1135 ;
1136 [label="gini = 0.278\nsamples = 12\nvalue = [10, 2]"] ;
1135 -> 1136 ;
1137 [label="gini = 0.0\nsamples = 50\nvalue = [50, 0]"] ;
1135 -> 1137 ;
1138 [label="X[6] <= 0.676\ngini = 0.433\nsamples = 41\nvalue = [28, 13]"] ;
1134 -> 1138 ;
1139 [label="gini = 0.111\nsamples = 17\nvalue = [16, 1]"] ;
1138 -> 1139 ;
1140 [label="X[0] <= 0.76\ngini = 0.5\nsamples = 24\nvalue = [12, 12]"] ;
1138 -> 1140 ;
1141 [label="gini = 0.408\nsamples = 14\nvalue = [4, 10]"] ;
1140 -> 1141 ;
1142 [label="gini = 0.32\nsamples = 10\nvalue = [8, 2]"] ;
1140 -> 1142 ;
1143 [label="X[8] <= 0.5\ngini = 0.412\nsamples = 709\nvalue = [503, 206]"] ;
1061 -> 1143 ;
1144 [label="X[3] <= 0.898\ngini = 0.426\nsamples = 661\nvalue = [458, 203]"] ;
1143 -> 1144 ;
1145 [label="X[3] <= 0.833\ngini = 0.446\nsamples = 566\nvalue = [376, 190]"] ;
1144 -> 1145 ;
1146 [label="X[3] <= 0.809\ngini = 0.432\nsamples = 522\nvalue = [357, 165]"] ;
1145 -> 1146 ;
1147 [label="X[6] <= 0.021\ngini = 0.45\nsamples = 467\nvalue = [307, 160]"] ;
1146 -> 1147 ;
1148 [label="X[6] <= 0.001\ngini = 0.481\nsamples = 275\nvalue = [164, 111]"] ;
1147 -> 1148 ;
1149 [label="X[3] <= 0.729\ngini = 0.457\nsamples = 201\nvalue = [130, 71]"] ;
1148 -> 1149 ;
1150 [label="X[2] <= 0.732\ngini = 0.369\nsamples = 78\nvalue = [59, 19]"] ;
1149 -> 1150 ;
1151 [label="X[2] <= 0.711\ngini = 0.406\nsamples = 67\nvalue = [48, 19]"] ;
1150 -> 1151 ;
1152 [label="X[0] <= 0.845\ngini = 0.31\nsamples = 47\nvalue = [38, 9]"] ;
1151 -> 1152 ;
1153 [label="X[0] <= 0.819\ngini = 0.389\nsamples = 34\nvalue = [25, 9]"] ;
1152 -> 1153 ;
1154 [label="gini = 0.266\nsamples = 19\nvalue = [16, 3]"] ;
1153 -> 1154 ;
1155 [label="gini = 0.48\nsamples = 15\nvalue = [9, 6]"] ;
1153 -> 1155 ;
1156 [label="gini = 0.0\nsamples = 13\nvalue = [13, 0]"] ;
1152 -> 1156 ;
1157 [label="X[0] <= 0.82\ngini = 0.5\nsamples = 20\nvalue = [10, 10]"] ;
1151 -> 1157 ;
1158 [label="gini = 0.42\nsamples = 10\nvalue = [7, 3]"] ;
1157 -> 1158 ;
1159 [label="gini = 0.42\nsamples = 10\nvalue = [3, 7]"] ;
1157 -> 1159 ;
1160 [label="gini = 0.0\nsamples = 11\nvalue = [11, 0]"] ;
1150 -> 1160 ;
1161 [label="X[3] <= 0.773\ngini = 0.488\nsamples = 123\nvalue = [71, 52]"] ;
1149 -> 1161 ;
1162 [label="X[3] <= 0.741\ngini = 0.484\nsamples = 51\nvalue = [21, 30]"] ;
1161 -> 1162 ;
1163 [label="gini = 0.459\nsamples = 14\nvalue = [9, 5]"] ;
1162 -> 1163 ;
1164 [label="X[3] <= 0.752\ngini = 0.438\nsamples = 37\nvalue = [12, 25]"] ;
1162 -> 1164 ;
1165 [label="gini = 0.231\nsamples = 15\nvalue = [2, 13]"] ;
1164 -> 1165 ;
1166 [label="X[2] <= 0.698\ngini = 0.496\nsamples = 22\nvalue = [10, 12]"] ;
1164 -> 1166 ;
1167 [label="gini = 0.42\nsamples = 10\nvalue = [3, 7]"] ;
1166 -> 1167 ;
1168 [label="gini = 0.486\nsamples = 12\nvalue = [7, 5]"] ;
1166 -> 1168 ;
1169 [label="X[3] <= 0.797\ngini = 0.424\nsamples = 72\nvalue = [50, 22]"] ;
1161 -> 1169 ;
1170 [label="X[0] <= 0.829\ngini = 0.35\nsamples = 53\nvalue = [41, 12]"] ;
1169 -> 1170 ;
1171 [label="X[3] <= 0.782\ngini = 0.185\nsamples = 29\nvalue = [26, 3]"] ;
1170 -> 1171 ;
1172 [label="gini = 0.42\nsamples = 10\nvalue = [7, 3]"] ;
1171 -> 1172 ;
1173 [label="gini = 0.0\nsamples = 19\nvalue = [19, 0]"] ;
1171 -> 1173 ;
1174 [label="X[0] <= 0.85\ngini = 0.469\nsamples = 24\nvalue = [15, 9]"] ;
1170 -> 1174 ;
1175 [label="gini = 0.486\nsamples = 12\nvalue = [5, 7]"] ;
1174 -> 1175 ;
1176 [label="gini = 0.278\nsamples = 12\nvalue = [10, 2]"] ;
1174 -> 1176 ;
1177 [label="gini = 0.499\nsamples = 19\nvalue = [9, 10]"] ;
1169 -> 1177 ;
1178 [label="X[2] <= 0.701\ngini = 0.497\nsamples = 74\nvalue = [34, 40]"] ;
1148 -> 1178 ;
1179 [label="X[1] <= 0.425\ngini = 0.48\nsamples = 35\nvalue = [21, 14]"] ;
1178 -> 1179 ;
1180 [label="gini = 0.18\nsamples = 10\nvalue = [9, 1]"] ;
1179 -> 1180 ;
1181 [label="X[5] <= 0.987\ngini = 0.499\nsamples = 25\nvalue = [12, 13]"] ;
1179 -> 1181 ;
1182 [label="gini = 0.375\nsamples = 12\nvalue = [3, 9]"] ;
1181 -> 1182 ;
1183 [label="gini = 0.426\nsamples = 13\nvalue = [9, 4]"] ;
1181 -> 1183 ;
1184 [label="X[2] <= 0.716\ngini = 0.444\nsamples = 39\nvalue = [13, 26]"] ;
1178 -> 1184 ;
1185 [label="gini = 0.198\nsamples = 18\nvalue = [2, 16]"] ;
1184 -> 1185 ;
1186 [label="X[1] <= 0.486\ngini = 0.499\nsamples = 21\nvalue = [11, 10]"] ;
1184 -> 1186 ;
1187 [label="gini = 0.32\nsamples = 10\nvalue = [8, 2]"] ;
1186 -> 1187 ;
1188 [label="gini = 0.397\nsamples = 11\nvalue = [3, 8]"] ;
1186 -> 1188 ;
1189 [label="X[6] <= 0.614\ngini = 0.38\nsamples = 192\nvalue = [143, 49]"] ;
1147 -> 1189 ;
1190 [label="X[0] <= 0.867\ngini = 0.268\nsamples = 119\nvalue = [100, 19]"] ;
1189 -> 1190 ;
1191 [label="X[2] <= 0.682\ngini = 0.222\nsamples = 102\nvalue = [89, 13]"] ;
1190 -> 1191 ;
1192 [label="X[1] <= 0.485\ngini = 0.375\nsamples = 24\nvalue = [18, 6]"] ;
1191 -> 1192 ;
1193 [label="gini = 0.153\nsamples = 12\nvalue = [11, 1]"] ;
1192 -> 1193 ;
1194 [label="gini = 0.486\nsamples = 12\nvalue = [7, 5]"] ;
1192 -> 1194 ;
1195 [label="X[0] <= 0.838\ngini = 0.163\nsamples = 78\nvalue = [71, 7]"] ;
1191 -> 1195 ;
1196 [label="X[1] <= 0.532\ngini = 0.268\nsamples = 44\nvalue = [37, 7]"] ;
1195 -> 1196 ;
1197 [label="X[0] <= 0.802\ngini = 0.358\nsamples = 30\nvalue = [23, 7]"] ;
1196 -> 1197 ;
1198 [label="gini = 0.208\nsamples = 17\nvalue = [15, 2]"] ;
1197 -> 1198 ;
1199 [label="gini = 0.473\nsamples = 13\nvalue = [8, 5]"] ;
1197 -> 1199 ;
1200 [label="gini = 0.0\nsamples = 14\nvalue = [14, 0]"] ;
1196 -> 1200 ;
1201 [label="gini = 0.0\nsamples = 34\nvalue = [34, 0]"] ;
1195 -> 1201 ;
1202 [label="gini = 0.457\nsamples = 17\nvalue = [11, 6]"] ;
1190 -> 1202 ;
1203 [label="X[0] <= 0.806\ngini = 0.484\nsamples = 73\nvalue = [43, 30]"] ;
1189 -> 1203 ;
1204 [label="X[6] <= 0.839\ngini = 0.42\nsamples = 20\nvalue = [6, 14]"] ;
1203 -> 1204 ;
1205 [label="gini = 0.18\nsamples = 10\nvalue = [1, 9]"] ;
1204 -> 1205 ;
1206 [label="gini = 0.5\nsamples = 10\nvalue = [5, 5]"] ;
1204 -> 1206 ;
1207 [label="X[3] <= 0.768\ngini = 0.422\nsamples = 53\nvalue = [37, 16]"] ;
1203 -> 1207 ;
1208 [label="X[2] <= 0.695\ngini = 0.32\nsamples = 40\nvalue = [32, 8]"] ;
1207 -> 1208 ;
1209 [label="gini = 0.117\nsamples = 16\nvalue = [15, 1]"] ;
1208 -> 1209 ;
1210 [label="X[2] <= 0.715\ngini = 0.413\nsamples = 24\nvalue = [17, 7]"] ;
1208 -> 1210 ;
1211 [label="gini = 0.496\nsamples = 11\nvalue = [6, 5]"] ;
1210 -> 1211 ;
1212 [label="gini = 0.26\nsamples = 13\nvalue = [11, 2]"] ;
1210 -> 1212 ;
1213 [label="gini = 0.473\nsamples = 13\nvalue = [5, 8]"] ;
1207 -> 1213 ;
1214 [label="X[3] <= 0.821\ngini = 0.165\nsamples = 55\nvalue = [50, 5]"] ;
1146 -> 1214 ;
1215 [label="X[3] <= 0.811\ngini = 0.278\nsamples = 30\nvalue = [25, 5]"] ;
1214 -> 1215 ;
1216 [label="gini = 0.0\nsamples = 15\nvalue = [15, 0]"] ;
1215 -> 1216 ;
1217 [label="gini = 0.444\nsamples = 15\nvalue = [10, 5]"] ;
1215 -> 1217 ;
1218 [label="gini = 0.0\nsamples = 25\nvalue = [25, 0]"] ;
1214 -> 1218 ;
1219 [label="X[1] <= 0.604\ngini = 0.491\nsamples = 44\nvalue = [19, 25]"] ;
1145 -> 1219 ;
1220 [label="X[3] <= 0.837\ngini = 0.415\nsamples = 34\nvalue = [10, 24]"] ;
1219 -> 1220 ;
1221 [label="gini = 0.0\nsamples = 10\nvalue = [0, 10]"] ;
1220 -> 1221 ;
1222 [label="X[5] <= 0.995\ngini = 0.486\nsamples = 24\nvalue = [10, 14]"] ;
1220 -> 1222 ;
1223 [label="gini = 0.48\nsamples = 10\nvalue = [6, 4]"] ;
1222 -> 1223 ;
1224 [label="gini = 0.408\nsamples = 14\nvalue = [4, 10]"] ;
1222 -> 1224 ;
1225 [label="gini = 0.18\nsamples = 10\nvalue = [9, 1]"] ;
1219 -> 1225 ;
1226 [label="X[0] <= 0.824\ngini = 0.236\nsamples = 95\nvalue = [82, 13]"] ;
1144 -> 1226 ;
1227 [label="gini = 0.499\nsamples = 19\nvalue = [10, 9]"] ;
1226 -> 1227 ;
1228 [label="X[5] <= 0.933\ngini = 0.1\nsamples = 76\nvalue = [72, 4]"] ;
1226 -> 1228 ;
1229 [label="gini = 0.48\nsamples = 10\nvalue = [6, 4]"] ;
1228 -> 1229 ;
1230 [label="gini = 0.0\nsamples = 66\nvalue = [66, 0]"] ;
1228 -> 1230 ;
1231 [label="X[1] <= 0.419\ngini = 0.117\nsamples = 48\nvalue = [45, 3]"] ;
1143 -> 1231 ;
1232 [label="gini = 0.375\nsamples = 12\nvalue = [9, 3]"] ;
1231 -> 1232 ;
1233 [label="gini = 0.0\nsamples = 36\nvalue = [36, 0]"] ;
1231 -> 1233 ;
1234 [label="gini = 0.0\nsamples = 63\nvalue = [63, 0]"] ;
1060 -> 1234 ;
1235 [label="X[3] <= 0.804\ngini = 0.437\nsamples = 1319\nvalue = [893, 426]"] ;
819 -> 1235 ;
